980 100 100
情報 0.037271853536367416 0.18903540074825287 0.08961514383554459 -0.09809425473213196 -0.03323465213179588 -0.21095381677150726 0.14093981683254242 0.08769870549440384 -0.2857963442802429 -0.17940708994865417 -0.04258597642183304 0.17403985559940338 0.012480915524065495 0.10986115038394928 -0.18074575066566467 -0.09323990345001221 -0.06723158806562424 -0.05755684897303581 0.10898731648921967 0.04254380613565445 -0.03748504817485809 0.10813131928443909 -0.2509447932243347 -0.16974890232086182 -0.27926433086395264 0.12630484998226166 0.1516810655593872 -0.07620173692703247 0.0021040558349341154 0.06656334549188614 -0.0308467298746109 0.005416023079305887 0.15131643414497375 0.0036943359300494194 -0.1254514753818512 0.23001313209533691 0.097593292593956 -0.19777077436447144 -0.2754044830799103 -0.1344359666109085 0.008610512129962444 0.006660024635493755 -0.1068165972828865 0.20449382066726685 0.007352587301284075 0.03432465344667435 0.01883244328200817 0.10364096611738205 -6.573253776878119E-4 -0.051442258059978485 0.031850118190050125 0.1979081928730011 0.23005138337612152 0.08687172085046768 -0.15589448809623718 -0.0020496188662946224 -0.09772010147571564 -0.1541992574930191 -0.26136156916618347 -0.10350991040468216 -0.10830755531787872 0.2484947293996811 -0.09739374369382858 0.14721155166625977 0.14268654584884644 0.20094434916973114 0.15078121423721313 -0.04920021444559097 -0.21970701217651367 -0.09019213169813156 -0.035786550492048264 -0.1730591505765915 0.12432565540075302 0.050577081739902496 -0.12382037937641144 -0.1574636697769165 -0.022268708795309067 -0.1252107173204422 -0.16923297941684723 -0.12207692116498947 -0.17119178175926208 0.05601126700639725 -0.08898722380399704 0.016122128814458847 -0.1300453245639801 0.02024071291089058 -0.1102813258767128 0.03793136030435562 -0.0522598959505558 0.013409850187599659 0.038927312940359116 0.016652779653668404 -0.06838361918926239 0.08382174372673035 0.016927199438214302 0.0041309529915452 -0.10899125784635544 0.018235964700579643 -0.10422462224960327 0.058560363948345184
ネスト 0.014905362389981747 0.12376287579536438 0.055723097175359726 -0.06151088327169418 -0.022749943658709526 -0.1422910988330841 0.0923984944820404 0.05967767909169197 -0.19825786352157593 -0.12944774329662323 -0.028399309143424034 0.12087414413690567 0.010756262578070164 0.07424594461917877 -0.11579332500696182 -0.06490049511194229 -0.05348080396652222 -0.04300124943256378 0.0729391798377037 0.025473125278949738 -0.031839244067668915 0.07564612478017807 -0.1788809895515442 -0.11103913933038712 -0.18842452764511108 0.0889260396361351 0.09662904590368271 -0.048944730311632156 -8.363145752809942E-4 0.03850828483700752 -0.015201956033706665 -0.0018617112655192614 0.1027793288230896 0.004312877543270588 -0.09437964111566544 0.15478244423866272 0.07358571141958237 -0.1372433304786682 -0.18312343955039978 -0.08725058287382126 0.0046986923553049564 0.005581505596637726 -0.07590877264738083 0.14655190706253052 0.0065234750509262085 0.020547762513160706 0.010596402920782566 0.06970083713531494 0.006572334095835686 -0.034033454954624176 0.02913156896829605 0.13680711388587952 0.151466965675354 0.05622222647070885 -0.09924208372831345 -0.006624361965805292 -0.05882076174020767 -0.10182510316371918 -0.1729627102613449 -0.07035035640001297 -0.07280751317739487 0.16804464161396027 -0.058332670480012894 0.10449687391519547 0.09116969257593155 0.13597357273101807 0.09452739357948303 -0.02541962079703808 -0.1519751101732254 -0.05787588283419609 -0.023511653766036034 -0.11407482624053955 0.08490685373544693 0.03383754566311836 -0.09226502478122711 -0.10993264615535736 -0.009687133133411407 -0.08889111131429672 -0.11168895661830902 -0.07925207912921906 -0.11723246425390244 0.04118221998214722 -0.06203753501176834 0.00933337677270174 -0.09456901997327805 0.010662653483450413 -0.07589585334062576 0.029507368803024292 -0.04126723110675812 0.0124901682138443 0.028191426768898964 0.0028629417065531015 -0.036003053188323975 0.05082312226295471 0.014880022034049034 0.0023804076481610537 -0.07971616834402084 0.004218374378979206 -0.06095749884843826 0.039129696786403656
正式 0.01692419871687889 0.12291400134563446 0.052018072456121445 -0.0576438270509243 -0.02434101328253746 -0.13641788065433502 0.08437089622020721 0.06255702674388885 -0.1871912181377411 -0.11765223741531372 -0.027754882350564003 0.11871687322854996 0.010237785056233406 0.06808312237262726 -0.1108192503452301 -0.05905074626207352 -0.04153567552566528 -0.0337151363492012 0.07461120188236237 0.024871917441487312 -0.027250178158283234 0.06724528968334198 -0.16989976167678833 -0.11017448455095291 -0.17564326524734497 0.08106038719415665 0.09073654562234879 -0.04417978972196579 8.641184540465474E-4 0.03816409781575203 -0.01817510463297367 6.025113398209214E-4 0.1001313254237175 -0.003118982072919607 -0.07953158766031265 0.15126386284828186 0.06047507002949715 -0.12812277674674988 -0.17835207283496857 -0.0829968973994255 0.00501059228554368 0.004294778686016798 -0.07258381694555283 0.13417300581932068 0.00500920694321394 0.02658163197338581 0.011095186695456505 0.06251150369644165 2.554147504270077E-4 -0.03490094840526581 0.02199670672416687 0.130416601896286 0.1436898112297058 0.05914720892906189 -0.10268301516771317 0.002117642667144537 -0.05795374885201454 -0.0999877080321312 -0.1647683084011078 -0.06646598875522614 -0.06848596781492233 0.1580771952867508 -0.06633774191141129 0.09839184582233429 0.08360398560762405 0.12319031357765198 0.0929836854338646 -0.03165583685040474 -0.1446535289287567 -0.05620043724775314 -0.030334606766700745 -0.11145118623971939 0.08212623745203018 0.037905868142843246 -0.08221187442541122 -0.1008552834391594 -0.011268607340753078 -0.08084781467914581 -0.10285648703575134 -0.07609526067972183 -0.10750564932823181 0.031678203493356705 -0.051119543612003326 0.016567688435316086 -0.08587081730365753 0.01976907067000866 -0.07048652321100235 0.02555827610194683 -0.03452598676085472 0.0019946505781263113 0.02213285118341446 0.0092878807336092 -0.03994705155491829 0.04926404356956482 0.013134843669831753 0.008240574970841408 -0.06836733967065811 0.013468838296830654 -0.06960837543010712 0.036123864352703094
門間 0.0167861208319664 0.12256702035665512 0.06047091260552406 -0.05578158423304558 -0.026213252916932106 -0.14132201671600342 0.09569110721349716 0.059537116438150406 -0.20536614954471588 -0.13182595372200012 -0.02403002232313156 0.11724846065044403 0.016219234094023705 0.07393673807382584 -0.11107568442821503 -0.0615566112101078 -0.053432222455739975 -0.038516126573085785 0.07280509918928146 0.027681604027748108 -0.031335800886154175 0.07777708768844604 -0.18566280603408813 -0.1226174607872963 -0.19242586195468903 0.088694728910923 0.09704472869634628 -0.0427761971950531 0.002377568045631051 0.038093287497758865 -0.021745240315794945 5.1100057316944E-4 0.09405600279569626 0.007082836702466011 -0.09505704045295715 0.1569024920463562 0.0671062245965004 -0.1373199075460434 -0.18200519680976868 -0.08820780366659164 0.002364909276366234 0.013242796994745731 -0.07210782170295715 0.14377358555793762 0.003959410358220339 0.027751993387937546 0.0014935600338503718 0.07538704574108124 0.0020133862271904945 -0.029077334329485893 0.028114844113588333 0.13575632870197296 0.15544426441192627 0.062133707106113434 -0.11118333041667938 3.4485000651329756E-4 -0.06187647581100464 -0.10450122505426407 -0.17570459842681885 -0.07918816059827805 -0.07159992307424545 0.17052198946475983 -0.05234063044190407 0.09978711605072021 0.09560833871364594 0.13438616693019867 0.09249697625637054 -0.023185689002275467 -0.14380493760108948 -0.05732712522149086 -0.027327289804816246 -0.11743856221437454 0.07802876830101013 0.0466005839407444 -0.0888327807188034 -0.10180684924125671 -0.013690930791199207 -0.09218233823776245 -0.10496021062135696 -0.07312802225351334 -0.1058226078748703 0.0475480854511261 -0.06086152046918869 0.01602337695658207 -0.10870970785617828 0.01074154395610094 -0.06766048073768616 0.03888428583741188 -0.04482550546526909 0.005155637860298157 0.033687714487314224 0.004206426907330751 -0.037892185151576996 0.04741470888257027 0.011232628487050533 0.007722465321421623 -0.07236215472221375 0.007077342830598354 -0.05711275711655617 0.04150687903165817
個人 0.03735961392521858 0.19836755096912384 0.08509144186973572 -0.08980822563171387 -0.03212324529886246 -0.22049282491207123 0.1365467756986618 0.08558236807584763 -0.2919664978981018 -0.19056126475334167 -0.0431877076625824 0.183319091796875 0.012676937505602837 0.11844439804553986 -0.1806369572877884 -0.10159658640623093 -0.07975302636623383 -0.05922101438045502 0.11839651316404343 0.03711241856217384 -0.041816346347332 0.1076621562242508 -0.2742120623588562 -0.17818881571292877 -0.2858808934688568 0.1282300502061844 0.15074896812438965 -0.06921204179525375 0.002430450404062867 0.05932394787669182 -0.024243038147687912 0.006428329739719629 0.15964409708976746 0.0076429033651947975 -0.13288514316082 0.2407575249671936 0.10129891335964203 -0.212266743183136 -0.27910029888153076 -0.12646546959877014 -0.002110944362357259 0.019233770668506622 -0.1174035593867302 0.2147054672241211 0.006130924914032221 0.030741585418581963 0.010955211706459522 0.10581909120082855 0.005832636263221502 -0.05394181236624718 0.03465697914361954 0.20415131747722626 0.22684502601623535 0.09016766399145126 -0.15562225878238678 -0.006058845669031143 -0.09973824769258499 -0.15348541736602783 -0.26073575019836426 -0.11529719829559326 -0.10706004500389099 0.2520332336425781 -0.09728966653347015 0.15211452543735504 0.13914990425109863 0.20965458452701569 0.15177617967128754 -0.04724353551864624 -0.22387708723545074 -0.09274875372648239 -0.03658711910247803 -0.17534707486629486 0.12428125739097595 0.055406827479600906 -0.12915293872356415 -0.16033624112606049 -0.022497884929180145 -0.13113394379615784 -0.17319898307323456 -0.12727445363998413 -0.17509852349758148 0.05594659969210625 -0.09134591370820999 0.018576228991150856 -0.14133428037166595 0.01886412687599659 -0.10847868025302887 0.04757801070809364 -0.057494986802339554 0.018264751881361008 0.0360456258058548 0.011108056642115116 -0.06783487647771835 0.07654336094856262 0.0184115432202816 0.007228287402540445 -0.11929105222225189 0.012500914745032787 -0.10225392878055573 0.06583290547132492
スパン 0.010862773284316063 0.04679945111274719 0.017728660255670547 -0.02850387990474701 -0.006203599274158478 -0.0546315461397171 0.034277427941560745 0.02848236635327339 -0.0752275139093399 -0.04777990281581879 -0.013358501717448235 0.04291112348437309 7.550774607807398E-4 0.03199322521686554 -0.043514907360076904 -0.029355492442846298 -0.01715802401304245 -0.009739335626363754 0.027394555509090424 0.007948452606797218 -0.006954459473490715 0.030319364741444588 -0.0692020133137703 -0.039194971323013306 -0.07101652026176453 0.03411126509308815 0.039067965000867844 -0.017016414552927017 0.0026657746639102697 0.021161865442991257 -0.003717191983014345 -0.0037846220657229424 0.042337022721767426 0.0031276000663638115 -0.034197695553302765 0.06335755437612534 0.03019440732896328 -0.05189184844493866 -0.06813561171293259 -0.03207384794950485 0.00325187249109149 0.006169040687382221 -0.023961162194609642 0.05268199369311333 -0.0037841808516532183 0.008357156068086624 0.008439596742391586 0.020907549187541008 0.004854661412537098 -0.018169745802879333 0.011545775458216667 0.051299724727869034 0.05282453075051308 0.026625778526067734 -0.04026774689555168 0.0036265142261981964 -0.026746587827801704 -0.039750877767801285 -0.06442076712846756 -0.022944504395127296 -0.02314978837966919 0.06655869632959366 -0.02411360666155815 0.03444952890276909 0.03298966586589813 0.05247804895043373 0.03821079060435295 -0.008754539303481579 -0.05668626353144646 -0.024230726063251495 -0.01229676604270935 -0.03897900879383087 0.030067749321460724 0.009075276553630829 -0.03084038943052292 -0.03714605048298836 -0.009423376992344856 -0.034950241446495056 -0.047265633940696716 -0.027198124676942825 -0.047502197325229645 0.01414460875093937 -0.021957075223326683 0.00643542455509305 -0.03417761251330376 0.008061747066676617 -0.03255282714962959 0.015408855862915516 -0.013997834175825119 0.002330296440050006 0.009344511665403843 3.2385229133069515E-5 -0.01877499371767044 0.020108770579099655 0.007072229869663715 0.002509638201445341 -0.025101829320192337 0.006937394384294748 -0.022878067567944527 0.015037178993225098
顧客 0.023263175040483475 0.12267173826694489 0.050117868930101395 -0.05608898401260376 -0.021572567522525787 -0.12980251014232635 0.07850033044815063 0.05732016637921333 -0.15831506252288818 -0.1040516048669815 -0.02032669074833393 0.10453882813453674 0.006367704831063747 0.06431710720062256 -0.10859183967113495 -0.05473080649971962 -0.03846985474228859 -0.024690628051757812 0.06901467591524124 0.022248655557632446 -0.01672266609966755 0.06010834127664566 -0.13789592683315277 -0.09307511150836945 -0.16488103568553925 0.07798274606466293 0.09073337912559509 -0.04899170622229576 0.004974532872438431 0.04474072903394699 -0.015418099239468575 0.0019419260788708925 0.09256906062364578 -0.0036932043731212616 -0.07308821380138397 0.13736990094184875 0.05403789132833481 -0.1121438667178154 -0.15889304876327515 -0.0789538025856018 0.0017593780066817999 0.004598947707563639 -0.0656629279255867 0.11732742190361023 -0.002610639203339815 0.01897418685257435 0.018521497026085854 0.05408141016960144 0.005279358010739088 -0.030121497809886932 0.011855714954435825 0.11048072576522827 0.12882249057292938 0.05062473565340042 -0.08200927823781967 0.003658320289105177 -0.06378161162137985 -0.08288905769586563 -0.1469084471464157 -0.05146912857890129 -0.0617067813873291 0.1425735503435135 -0.06783083081245422 0.08062402158975601 0.07783997058868408 0.11716655641794205 0.08701664954423904 -0.030354684218764305 -0.12752175331115723 -0.05281809717416763 -0.024624643847346306 -0.10452540218830109 0.07065092772245407 0.029450980946421623 -0.07483889907598495 -0.09336793422698975 -0.020107422024011612 -0.06765290349721909 -0.10230173915624619 -0.07313130050897598 -0.10302494466304779 0.030889291316270828 -0.0563233345746994 0.016314715147018433 -0.062467195093631744 0.009069516323506832 -0.06628046184778214 0.02258249744772911 -0.031207263469696045 0.009393350221216679 0.021509865298867226 0.014144569635391235 -0.043939683586359024 0.04659774899482727 0.009134180843830109 0.0012983452761545777 -0.06462842226028442 0.010519586503505707 -0.07104124873876572 0.03388384357094765
午前 0.02769882045686245 0.14484621584415436 0.0637182965874672 -0.06679818779230118 -0.0220557302236557 -0.1531536728143692 0.09865032136440277 0.06995795667171478 -0.18985427916049957 -0.11274015158414841 -0.022723283618688583 0.13116693496704102 -0.0033809009473770857 0.07373465597629547 -0.1272449642419815 -0.0709923654794693 -0.03654509037733078 -0.034874144941568375 0.08037485927343369 0.02662048488855362 -0.02132577821612358 0.0716637670993805 -0.1691977083683014 -0.11280068010091782 -0.19287598133087158 0.09217865765094757 0.10405781120061874 -0.05800182372331619 -0.0035878324415534735 0.053588829934597015 -0.020331362262368202 9.986268196371384E-6 0.11081273853778839 -2.8523901710286736E-4 -0.08634459227323532 0.15767626464366913 0.07204990833997726 -0.131433367729187 -0.1928098201751709 -0.09649614989757538 0.0034205568954348564 0.004814412444829941 -0.0809357538819313 0.14335399866104126 4.0653429459780455E-4 0.02397499978542328 0.023019634187221527 0.06127235293388367 0.00652661919593811 -0.048234909772872925 0.017417697235941887 0.13179081678390503 0.16309621930122375 0.06776246428489685 -0.10024404525756836 0.008133070543408394 -0.07286317646503448 -0.0988355353474617 -0.17779789865016937 -0.061992939561605453 -0.06833852827548981 0.16979598999023438 -0.08726244419813156 0.10335291177034378 0.09565317630767822 0.13458023965358734 0.10746920853853226 -0.03407922014594078 -0.1556040495634079 -0.07346183806657791 -0.03342694789171219 -0.12476015090942383 0.09380649030208588 0.02877694182097912 -0.09144137799739838 -0.10742980986833572 -0.021187543869018555 -0.07613485306501389 -0.12482281774282455 -0.09167150408029556 -0.1288066804409027 0.02889898419380188 -0.06983768194913864 0.016319338232278824 -0.07792794704437256 0.01324912253767252 -0.08246535807847977 0.020473161712288857 -0.03014303930103779 0.00354481372050941 0.019178306683897972 0.01834241859614849 -0.05701511353254318 0.06864394247531891 0.008863587863743305 -0.00502922385931015 -0.07687777280807495 0.016446147114038467 -0.09138555824756622 0.03711606562137604
完成 0.007105362135916948 0.0635485053062439 0.032360512763261795 -0.029666438698768616 -0.006539115682244301 -0.06775546073913574 0.04160848259925842 0.03137896582484245 -0.09439018368721008 -0.06527699530124664 -0.010014396160840988 0.0580504909157753 0.008064819499850273 0.04050308093428612 -0.05183522403240204 -0.025916773825883865 -0.024976536631584167 -0.02147066779434681 0.04020272567868233 0.009311677888035774 -0.015882842242717743 0.03394534811377525 -0.0902833417057991 -0.056019604206085205 -0.09571514278650284 0.043617039918899536 0.053769875317811966 -0.02782195433974266 0.005141277797520161 0.01918725296854973 -0.011152002960443497 1.936266344273463E-4 0.0498163178563118 0.005939266178756952 -0.04884759336709976 0.08028575778007507 0.034201592206954956 -0.062018752098083496 -0.08381738513708115 -0.0455995574593544 1.4757271856069565E-4 8.519116090610623E-4 -0.039709459990262985 0.06646682322025299 0.0032247155904769897 0.011861816048622131 0.007876694202423096 0.031834956258535385 1.6286745085380971E-4 -0.017591970041394234 0.014559086412191391 0.06322077661752701 0.07033399492502213 0.024166055023670197 -0.04971781745553017 -0.004559478256851435 -0.0295382272452116 -0.05412149056792259 -0.08100102841854095 -0.03722397983074188 -0.03524468094110489 0.08510620146989822 -0.03148374333977699 0.05308986455202103 0.039949722588062286 0.0693872794508934 0.048895515501499176 -0.014242839068174362 -0.06784676760435104 -0.030205901712179184 -0.007016823161393404 -0.05131944268941879 0.037865765392780304 0.015193556435406208 -0.04107877239584923 -0.054357755929231644 -0.007884325459599495 -0.04211526736617088 -0.05603307858109474 -0.03869812190532684 -0.055900633335113525 0.018252074718475342 -0.02542562410235405 0.011317946016788483 -0.04518643021583557 0.01079351082444191 -0.03236641734838486 0.012064546346664429 -0.021086877211928368 -5.38415159098804E-4 0.01654393970966339 0.004365357104688883 -0.018586134538054466 0.027779050171375275 0.0031464111525565386 -0.0014644796028733253 -0.03867395967245102 0.008787393569946289 -0.03494786471128464 0.023454399779438972
入賞 0.01290993019938469 0.08108336478471756 0.031054027378559113 -0.03794132173061371 -0.010649559088051319 -0.08416753262281418 0.05851837992668152 0.033172886818647385 -0.10798162966966629 -0.06783638894557953 -0.016426417976617813 0.06645197421312332 -6.505052442662418E-5 0.045030176639556885 -0.07307758182287216 -0.0401429757475853 -0.02951694093644619 -0.024671465158462524 0.044606924057006836 0.016801968216896057 -0.01906202733516693 0.0433623306453228 -0.0998600572347641 -0.06581087410449982 -0.10428851842880249 0.05478677153587341 0.05471173673868179 -0.026000572368502617 -0.001858631381765008 0.031225597485899925 -0.014091973192989826 0.0011976381065323949 0.06659717112779617 -7.198528037406504E-4 -0.05162150412797928 0.08825784176588058 0.04435121640563011 -0.07723527401685715 -0.11221138387918472 -0.05004170164465904 0.003957272507250309 0.004976959899067879 -0.049471575766801834 0.08688902854919434 0.0038514011539518833 0.012864637188613415 0.005735271610319614 0.03447822853922844 -0.0017737294547259808 -0.019261928275227547 0.011328112334012985 0.08096068352460861 0.08606810867786407 0.03198493272066116 -0.06361258774995804 -0.004157889634370804 -0.04092477262020111 -0.0572575144469738 -0.10459056496620178 -0.03951001167297363 -0.03874698281288147 0.09870683401823044 -0.036378875374794006 0.06127104163169861 0.05443057790398598 0.08096069097518921 0.06308160722255707 -0.017419151961803436 -0.09090553969144821 -0.039098650217056274 -0.018323427066206932 -0.07210101187229156 0.049444593489170074 0.023508789017796516 -0.05188353732228279 -0.06135579198598862 -0.014776571653783321 -0.045776475220918655 -0.07117100059986115 -0.04846542328596115 -0.07352649420499802 0.022121602669358253 -0.0333598367869854 0.003782120533287525 -0.052457962185144424 0.01126688439399004 -0.04953060299158096 0.020482664927840233 -0.014846527948975563 9.625845123082399E-4 0.014545122161507607 0.008293021470308304 -0.024915458634495735 0.03408002853393555 0.009182829409837723 0.0033955276012420654 -0.04342612996697426 0.006613312289118767 -0.04001270607113838 0.027596276253461838
次期 0.011013825424015522 0.0697382390499115 0.032777633517980576 -0.03670277073979378 -0.008569561876356602 -0.07226074486970901 0.052620600908994675 0.02876952849328518 -0.09744848310947418 -0.06313541531562805 -0.009841150604188442 0.059732310473918915 0.004730787128210068 0.044345151633024216 -0.06691157072782516 -0.03692419454455376 -0.028514541685581207 -0.015473144128918648 0.03570599481463432 0.013204977847635746 -0.00931352935731411 0.039220232516527176 -0.08873920887708664 -0.06199226900935173 -0.09928692877292633 0.0441560260951519 0.05470597743988037 -0.02714175544679165 7.390519604086876E-4 0.02655823342502117 -0.0076192342676222324 0.0028559269849210978 0.05920533090829849 0.0048706019297242165 -0.04115024209022522 0.07889306545257568 0.035025469958782196 -0.07114061713218689 -0.09654145687818527 -0.052108220756053925 0.002886236412450671 -0.00102261605206877 -0.042269978672266006 0.07809798419475555 -0.0032290134113281965 0.008833545260131359 0.004669103305786848 0.03666551783680916 0.0015441597206518054 -0.01757202483713627 0.012229318730533123 0.07188576459884644 0.07815961539745331 0.027724506333470345 -0.05773521214723587 2.4506222689524293E-4 -0.03640865162014961 -0.0544280931353569 -0.09441366791725159 -0.03075496479868889 -0.03935236856341362 0.08313427865505219 -0.04047611728310585 0.048227157443761826 0.0492376908659935 0.07116590440273285 0.055382028222084045 -0.015036599710583687 -0.07842857390642166 -0.03018276020884514 -0.010430392809212208 -0.05874820053577423 0.044808030128479004 0.018971731886267662 -0.04720856621861458 -0.05721583589911461 -0.013611719943583012 -0.03875165060162544 -0.0611230693757534 -0.04660492017865181 -0.06215450167655945 0.013973132707178593 -0.03105909936130047 0.002919859951362014 -0.0383700430393219 0.01326658483594656 -0.036475710570812225 0.009848074056208134 -0.015054259449243546 0.0023352294228971004 0.011803964152932167 0.00884527899324894 -0.03099250979721546 0.03144201263785362 0.007092365995049477 0.004964547697454691 -0.044261254370212555 0.010786530561745167 -0.03837386146187782 0.0208453182131052
利用 0.01369535457342863 0.06905583292245865 0.027940670028328896 -0.036425527185201645 -0.012828730046749115 -0.07357354462146759 0.043568871915340424 0.03528110682964325 -0.09639157354831696 -0.06520586460828781 -0.01506045088171959 0.06538461893796921 0.004795747809112072 0.04338810592889786 -0.0629628598690033 -0.03353434428572655 -0.01955035701394081 -0.021369030699133873 0.04183726757764816 0.010733650997281075 -0.012838904745876789 0.03413587808609009 -0.08711174130439758 -0.060924869030714035 -0.09194228053092957 0.048420194536447525 0.052981119602918625 -0.029835177585482597 -0.0016762351151555777 0.025643009692430496 -0.010425454936921597 3.9135784027166665E-4 0.059842027723789215 4.935035249218345E-4 -0.046164412051439285 0.08298030495643616 0.03426632285118103 -0.06773354858160019 -0.09870398789644241 -0.04701368883252144 -0.0016795812407508492 0.003852825378999114 -0.036432214081287384 0.07204263657331467 0.0022475041914731264 0.006704637315124273 0.005169087089598179 0.036121539771556854 0.004344756714999676 -0.02500377967953682 0.009545935317873955 0.06910710036754608 0.08273716270923615 0.03390809893608093 -0.05149516090750694 9.060541924554855E-5 -0.03009628877043724 -0.04944808781147003 -0.090095654129982 -0.03457805514335632 -0.03161345794796944 0.08848187327384949 -0.04395944997668266 0.047901351004838943 0.04381468892097473 0.06475592404603958 0.05021335184574127 -0.017987200990319252 -0.07656429708003998 -0.03787882998585701 -0.014763964340090752 -0.06001865118741989 0.04415567219257355 0.01433343905955553 -0.04463782534003258 -0.05767999589443207 -0.008169311098754406 -0.03921017795801163 -0.057692814618349075 -0.04629778489470482 -0.05748963728547096 0.020737091079354286 -0.029229983687400818 0.002715715207159519 -0.04265015572309494 0.010669108480215073 -0.038467004895210266 0.014508393593132496 -0.017416736111044884 0.00440024072304368 0.007022179663181305 0.011294594965875149 -0.023786429315805435 0.028647368773818016 0.007285348139703274 0.0024525646585971117 -0.04190367832779884 0.0024242897052317858 -0.03757316619157791 0.02279738523066044
総合 0.020511001348495483 0.1483340561389923 0.06942304223775864 -0.07328630983829498 -0.03118439018726349 -0.1693006008863449 0.11393874138593674 0.07034655660390854 -0.23458310961723328 -0.14835095405578613 -0.02902442403137684 0.1458529531955719 0.016472237184643745 0.09662687033414841 -0.13702763617038727 -0.06872090697288513 -0.06188000738620758 -0.05169619992375374 0.0903446301817894 0.03433653712272644 -0.03454567864537239 0.08657148480415344 -0.22426363825798035 -0.14464133977890015 -0.23074732720851898 0.10643482208251953 0.12171879410743713 -0.05927114933729172 0.008510944433510303 0.04397134855389595 -0.021987710148096085 0.008041017688810825 0.1123853325843811 0.009495265781879425 -0.11446528881788254 0.1912972629070282 0.07784561067819595 -0.15850740671157837 -0.2192707359790802 -0.10185600817203522 -9.124307325691916E-6 0.010656162165105343 -0.07736286520957947 0.17610284686088562 0.007676954846829176 0.030120667070150375 0.011701542884111404 0.08821719884872437 0.0023546002339571714 -0.0326792374253273 0.036529455333948135 0.1635492891073227 0.1867663860321045 0.07261963188648224 -0.13024508953094482 -0.007019686978310347 -0.07076956331729889 -0.12205743789672852 -0.2069779485464096 -0.09036801010370255 -0.08696462959051132 0.2008785456418991 -0.06452378630638123 0.1284252107143402 0.11003188043832779 0.16348391771316528 0.11684595793485641 -0.038655105978250504 -0.17737695574760437 -0.06670283526182175 -0.028541970998048782 -0.14050225913524628 0.09694388508796692 0.05432519316673279 -0.10753246396780014 -0.1317799687385559 -0.01746453158557415 -0.10560821741819382 -0.13123086094856262 -0.09489993751049042 -0.12817957997322083 0.04452193155884743 -0.06974893063306808 0.016635127365589142 -0.12612344324588776 0.01846863515675068 -0.09212489426136017 0.044285982847213745 -0.04359841346740723 0.006651188712567091 0.04056436941027641 0.006716509349644184 -0.04535609483718872 0.053406599909067154 0.02158745378255844 0.005849011708050966 -0.08514856547117233 0.009957863949239254 -0.07484874129295349 0.05266363173723221
名誉 0.02477446384727955 0.1273087114095688 0.058295007795095444 -0.05565450340509415 -0.01892758533358574 -0.14484044909477234 0.09432477504014969 0.06514202058315277 -0.2003888189792633 -0.12339764088392258 -0.03380504623055458 0.12126413732767105 0.008643216453492641 0.07408594340085983 -0.12239351868629456 -0.06521070003509521 -0.05808233842253685 -0.03847319260239601 0.07162479311227798 0.021309781819581985 -0.03642735257744789 0.0727272778749466 -0.17954418063163757 -0.1180557906627655 -0.19475452601909637 0.08689802139997482 0.09841543436050415 -0.0480026975274086 0.00480668805539608 0.03845228627324104 -0.014853392727673054 4.5520576531998813E-4 0.09655006974935532 0.005956161767244339 -0.09262577444314957 0.1636485606431961 0.0700683742761612 -0.13173431158065796 -0.1845461130142212 -0.08424992114305496 -0.004485702142119408 0.0033762233797460794 -0.06868791580200195 0.14576558768749237 0.003570632543414831 0.02366090938448906 0.00865156576037407 0.07175739109516144 -0.004170774482190609 -0.033249158412218094 0.022556258365511894 0.13249187171459198 0.1540745198726654 0.05663703754544258 -0.10608815401792526 -0.0015561174368485808 -0.05913448706269264 -0.10414756834506989 -0.1807752400636673 -0.07741526514291763 -0.06752382963895798 0.16392092406749725 -0.0661718025803566 0.09416835755109787 0.09165733307600021 0.133455291390419 0.09791611135005951 -0.029740892350673676 -0.1468900591135025 -0.05550172179937363 -0.021349815651774406 -0.10973981022834778 0.07907212525606155 0.03642603009939194 -0.09389578551054001 -0.11115840077400208 -0.015255104750394821 -0.08283501118421555 -0.10595899820327759 -0.07606659829616547 -0.11120831221342087 0.03888285160064697 -0.054997216910123825 0.019797155633568764 -0.09968418627977371 0.01560079026967287 -0.07987261563539505 0.03518389165401459 -0.031406257301568985 0.008314208127558231 0.0314444862306118 0.008823887445032597 -0.043539758771657944 0.056011829525232315 0.015925880521535873 0.008565539494156837 -0.08322157710790634 0.004050725139677525 -0.07054023444652557 0.04308139905333519
議長 0.019504360854625702 0.12518858909606934 0.05424021929502487 -0.059022873640060425 -0.018140314146876335 -0.1365981251001358 0.09025923162698746 0.06270839273929596 -0.1813255399465561 -0.1200205460190773 -0.02784854546189308 0.11284290254116058 0.010743381455540657 0.06910856068134308 -0.10827691853046417 -0.05812045931816101 -0.0493876188993454 -0.03656303882598877 0.07342401891946793 0.024953817948698997 -0.029491102322936058 0.06458617746829987 -0.16335226595401764 -0.10529483109712601 -0.18283389508724213 0.07828739285469055 0.09980043768882751 -0.0417034812271595 0.0012637964682653546 0.03708219900727272 -0.020666202530264854 0.0010097600752487779 0.09603022783994675 -1.7996696988120675E-4 -0.08328226208686829 0.152314692735672 0.06291445344686508 -0.12490660697221756 -0.17292892932891846 -0.08554793149232864 0.003833129769191146 0.0039016385562717915 -0.07416918128728867 0.13421259820461273 0.00633517000824213 0.019844384863972664 0.008848232217133045 0.061281584203243256 0.005189886316657066 -0.034008242189884186 0.024220654740929604 0.12403407692909241 0.15146858990192413 0.05657457932829857 -0.09525713324546814 1.8282518794876523E-5 -0.05859748646616936 -0.09292113780975342 -0.16041907668113708 -0.06622704118490219 -0.07163936644792557 0.1561117172241211 -0.06802039593458176 0.09844207018613815 0.09275252372026443 0.13356712460517883 0.0959082692861557 -0.025604689493775368 -0.14660347998142242 -0.06058246269822121 -0.021488580852746964 -0.11509883403778076 0.07675338536500931 0.035773683339357376 -0.08724896609783173 -0.09681441634893417 -0.010339740663766861 -0.07892531901597977 -0.10545337200164795 -0.08182734996080399 -0.1083279401063919 0.038654860109090805 -0.05937448516488075 0.007885734550654888 -0.081154003739357 0.01550702191889286 -0.06814499199390411 0.027387958019971848 -0.029874982312321663 0.003434342797845602 0.026370752602815628 0.0028279805555939674 -0.04171862080693245 0.051192160695791245 0.013268955051898956 0.005567579995840788 -0.07577575743198395 0.007592890877276659 -0.06339824944734573 0.035018306225538254
主軸 0.01536187157034874 0.056765809655189514 0.02558460459113121 -0.027059396728873253 -0.011264601722359657 -0.05535696819424629 0.04375474527478218 0.028436383232474327 -0.07803839445114136 -0.048457711935043335 -0.010639313608407974 0.0532662570476532 0.001951073412783444 0.03470650315284729 -0.049261461943387985 -0.02946976199746132 -0.018554994836449623 -0.011636917479336262 0.02670290879905224 0.014043081551790237 -0.015167832374572754 0.030843600630760193 -0.07047369331121445 -0.04812003672122955 -0.07612732797861099 0.03780951723456383 0.03871263563632965 -0.019298231229186058 0.0031308047473430634 0.020169492810964584 -0.011757893487811089 0.003201558953151107 0.04408840462565422 -0.0022188068833202124 -0.037202756851911545 0.06469249725341797 0.029158616438508034 -0.04978084936738014 -0.07813876122236252 -0.034441445022821426 0.003240339457988739 -8.43250600155443E-4 -0.026948725804686546 0.05404059216380119 2.6334633002988994E-4 0.007044346071779728 0.002446115016937256 0.026224641129374504 -0.0020375323947519064 -0.014918833039700985 0.011320289224386215 0.04955505579710007 0.06265006959438324 0.021548394113779068 -0.04016897827386856 -0.001961854984983802 -0.024107400327920914 -0.04033569246530533 -0.07275395840406418 -0.028960801661014557 -0.028006726875901222 0.06437981873750687 -0.026904495432972908 0.040761835873126984 0.034511249512434006 0.060346394777297974 0.037314437329769135 -0.015718961134552956 -0.05963907018303871 -0.030500376597046852 -0.015403028577566147 -0.043568484485149384 0.03243466466665268 0.013166144490242004 -0.03356492146849632 -0.04729356989264488 -0.0067998189479112625 -0.03662896156311035 -0.05081046372652054 -0.03623783215880394 -0.05297880619764328 0.016082750633358955 -0.02473609521985054 0.0018443216104060411 -0.030407417565584183 0.009911925531923771 -0.03808813542127609 0.009372848086059093 -0.012355341576039791 0.0037888791412115097 0.007807265501469374 0.005754486657679081 -0.023935193195939064 0.01892886310815811 0.0011998368427157402 -0.004721684847027063 -0.034958235919475555 0.007692259736359119 -0.034345842897892 0.020234515890479088
総理 0.011011079885065556 0.0700022503733635 0.027255043387413025 -0.03540732339024544 -0.009340462274849415 -0.07610181719064713 0.04798102378845215 0.030235718935728073 -0.09802336990833282 -0.06304632127285004 -0.016786722466349602 0.06610815972089767 -0.002928725443780422 0.041680708527565 -0.06455054134130478 -0.035923052579164505 -0.02020571380853653 -0.014317193999886513 0.03790361434221268 0.019258607178926468 -0.011378961615264416 0.041542306542396545 -0.08489438891410828 -0.062356702983379364 -0.09890127182006836 0.047941964119672775 0.05536533147096634 -0.026664070785045624 0.0025369080249220133 0.023049235343933105 -0.008478769101202488 0.0015930529916658998 0.05626503750681877 0.003248827299103141 -0.04579038918018341 0.08119235932826996 0.03565383702516556 -0.07109347730875015 -0.10164152085781097 -0.044771429151296616 0.0014555576490238309 -6.935533019714057E-4 -0.03629566356539726 0.07433513551950455 -8.578092674724758E-4 0.007792243268340826 0.007589844986796379 0.030787935480475426 -0.0013888487592339516 -0.018137510865926743 0.014323634095489979 0.0684429183602333 0.07973005622625351 0.029804030433297157 -0.0545305460691452 -0.0024301912635564804 -0.031378816813230515 -0.05802641808986664 -0.08744722604751587 -0.031856901943683624 -0.03073086403310299 0.0812564566731453 -0.03619655221700668 0.055738311260938644 0.0464228093624115 0.0679531916975975 0.05012379586696625 -0.022280249744653702 -0.08088452368974686 -0.03347952291369438 -0.014733606949448586 -0.06177426874637604 0.040011387318372726 0.013653287664055824 -0.04486353322863579 -0.052890509366989136 -0.009418589994311333 -0.04510468617081642 -0.06454791873693466 -0.045581087470054626 -0.06009441241621971 0.015353789553046227 -0.02942097932100296 0.005153465084731579 -0.03908245265483856 0.00448799692094326 -0.045112449675798416 0.012557968497276306 -0.02098681405186653 0.0037142999935895205 0.010432424023747444 0.008384732529520988 -0.024695105850696564 0.027208659797906876 0.008539964444935322 0.003974974155426025 -0.038236163556575775 0.008948370814323425 -0.038077712059020996 0.019178463146090508
進出 0.0058599296025931835 0.04846629127860069 0.026944248005747795 -0.02221515029668808 -0.007178455591201782 -0.0550449974834919 0.040110718458890915 0.021859150379896164 -0.07720155268907547 -0.051047831773757935 -0.01323673501610756 0.04921657592058182 -0.0010658585233613849 0.02423933893442154 -0.0428689680993557 -0.029019439592957497 -0.01999134011566639 -0.016431188210844994 0.032504335045814514 0.009242965839803219 -0.010829152539372444 0.022729557007551193 -0.07011670619249344 -0.0460863821208477 -0.07323089241981506 0.03597758337855339 0.04111698269844055 -0.019232075661420822 3.38911049766466E-4 0.015615384094417095 -0.005441329907625914 0.0056969053111970425 0.042616117745637894 0.001113336649723351 -0.032122742384672165 0.06360875815153122 0.021932218223810196 -0.047625672072172165 -0.07078304141759872 -0.03546469658613205 0.004649775568395853 0.004197816830128431 -0.025179598480463028 0.05891967564821243 0.0032477236818522215 0.006308656185865402 0.006129907909780741 0.024805348366498947 -9.681865922175348E-4 -0.014383896254003048 0.009087659418582916 0.04854777082800865 0.05826262757182121 0.02240128442645073 -0.036921609193086624 0.0037819400895386934 -0.020611895248293877 -0.04362153634428978 -0.062052372843027115 -0.031072992831468582 -0.022677596658468246 0.061598584055900574 -0.02422434464097023 0.03779735788702965 0.03907013684511185 0.05190617963671684 0.040453266352415085 -0.007945743389427662 -0.05605904385447502 -0.024541480466723442 -0.012523437850177288 -0.04846235737204552 0.034261249005794525 0.013332108967006207 -0.033619288355112076 -0.038586679846048355 -7.585561252199113E-4 -0.035208262503147125 -0.040892649441957474 -0.0358736552298069 -0.040073212236166 0.016303783282637596 -0.017829759046435356 0.009353299625217915 -0.032747142016887665 0.0020840445067733526 -0.03056112304329872 0.006812634412199259 -0.017139064148068428 0.003322361269965768 0.013941495679318905 0.0015533879632130265 -0.018395861610770226 0.020530004054307938 0.008937141858041286 0.004436537157744169 -0.028106246143579483 0.0013139621587470174 -0.02177678421139717 0.01681092195212841
工業 0.006002351175993681 0.0671858862042427 0.031049087643623352 -0.03140232712030411 -0.007328832522034645 -0.07683553546667099 0.04929140955209732 0.026293501257896423 -0.10614694654941559 -0.07354911416769028 -0.015122619457542896 0.060677289962768555 0.008975544944405556 0.04609132558107376 -0.059791017323732376 -0.037606630474328995 -0.0329422689974308 -0.024034623056650162 0.04314030334353447 0.008647303096950054 -0.014098435640335083 0.03858250007033348 -0.10610689222812653 -0.05860564857721329 -0.10470074415206909 0.04561954736709595 0.05508805438876152 -0.03006621263921261 0.004491737112402916 0.015392898581922054 -0.007027473300695419 0.003920072689652443 0.054928008466959 0.007489036303013563 -0.048642564564943314 0.08260004967451096 0.042779095470905304 -0.07495799660682678 -0.09940594434738159 -0.04820870980620384 -0.0021810722537338734 0.008383465930819511 -0.038789693266153336 0.0828005000948906 0.008140886202454567 0.007145818788558245 -0.0028135692700743675 0.037580206990242004 -0.003460706677287817 -0.012478180229663849 0.011382143013179302 0.0723440870642662 0.07820519804954529 0.027671068906784058 -0.05727136880159378 0.0020585244055837393 -0.03453913331031799 -0.052487801760435104 -0.09412974119186401 -0.0435546413064003 -0.041338637471199036 0.09186124801635742 -0.027218254283070564 0.05771873891353607 0.0517207607626915 0.07519663870334625 0.049067020416259766 -0.018561167642474174 -0.07906390726566315 -0.030462488532066345 -0.008214213885366917 -0.06519016623497009 0.04214959964156151 0.025225594639778137 -0.045455705374479294 -0.05660901963710785 -0.0016563324024900794 -0.05130487680435181 -0.05163731426000595 -0.03765253722667694 -0.059118833392858505 0.02443142980337143 -0.033990278840065 0.010809697210788727 -0.05943858623504639 0.011427728459239006 -0.034836746752262115 0.02042013593018055 -0.02494446001946926 0.004611134063452482 0.012611604295670986 -0.0026299008168280125 -0.01582738198339939 0.021070731803774834 0.0055399262346327305 0.0033716284669935703 -0.04335472732782364 0.0033687676768749952 -0.03149773180484772 0.01855544187128544
山陽 0.0058299470692873 0.06880459934473038 0.025707414373755455 -0.0359809473156929 -0.010276036337018013 -0.07238686084747314 0.049130283296108246 0.029011357575654984 -0.10267617553472519 -0.05807751417160034 -0.009570307098329067 0.055330999195575714 0.006282675080001354 0.03575991094112396 -0.05720074474811554 -0.030707629397511482 -0.021271562203764915 -0.017112892121076584 0.03590470924973488 0.01131678931415081 -0.016031743958592415 0.038794636726379395 -0.08790826052427292 -0.05405500531196594 -0.08920437097549438 0.0436725988984108 0.04599923640489578 -0.022671107202768326 0.005184534937143326 0.02167840488255024 -0.007016764022409916 -0.0019052112475037575 0.05370064079761505 0.004345276392996311 -0.0455336831510067 0.08261717855930328 0.02852340042591095 -0.06694345921278 -0.09154114872217178 -0.04051044210791588 0.004465130157768726 0.0017009946750476956 -0.03698723763227463 0.07024013251066208 -5.5996133596636355E-5 0.0067589981481432915 0.0031075996812433004 0.0337730273604393 -0.002068841364234686 -0.012701128609478474 0.015048433095216751 0.0709092766046524 0.07669281214475632 0.03417189046740532 -0.05343503877520561 -0.001046876423060894 -0.025969721376895905 -0.05044206976890564 -0.08508100360631943 -0.03300456702709198 -0.035694949328899384 0.07857062667608261 -0.02693689428269863 0.04876980185508728 0.04470376670360565 0.06422432512044907 0.0487932413816452 -0.014537599869072437 -0.07880933582782745 -0.03448133543133736 -0.00963529385626316 -0.058841753751039505 0.044050976634025574 0.019911477342247963 -0.0483388751745224 -0.048980962485075 -0.01026101503521204 -0.041203830391168594 -0.04983626678586006 -0.037095315754413605 -0.056556083261966705 0.017676537856459618 -0.026051927357912064 0.004042323213070631 -0.05026566982269287 0.004469037521630526 -0.03432030975818634 0.011026795953512192 -0.021214524284005165 0.005928062833845615 0.010600050911307335 -5.141142755746841E-4 -0.02135939709842205 0.02662448026239872 0.004713468719273806 0.006568726617842913 -0.04084855318069458 0.004809746518731117 -0.03631732985377312 0.02027018554508686
会合 0.011856180615723133 0.06618751585483551 0.03315640240907669 -0.03299424424767494 -0.010114207863807678 -0.07688368856906891 0.050505831837654114 0.032175976783037186 -0.10250160098075867 -0.058530766516923904 -0.018878299742937088 0.06636558473110199 0.0038234603125602007 0.03716755658388138 -0.06284891068935394 -0.03553106263279915 -0.020408954471349716 -0.02210862934589386 0.03650098294019699 0.008973907679319382 -0.01446473691612482 0.04070231691002846 -0.08916066586971283 -0.05745710805058479 -0.09537632018327713 0.04941418766975403 0.05658787488937378 -0.025560565292835236 -7.483678637072444E-4 0.021504605188965797 -0.015169598162174225 -0.0019293634686619043 0.052744876593351364 -8.314634906128049E-4 -0.04436834901571274 0.08004532754421234 0.03965933620929718 -0.06787194311618805 -0.09465496987104416 -0.04950258508324623 0.005107307340949774 -0.0020874799229204655 -0.03688643127679825 0.07050082832574844 0.005720815155655146 0.010981696657836437 0.005862102843821049 0.032407376915216446 0.0019945523235946894 -0.02136167511343956 0.012995775789022446 0.06530340760946274 0.08183318376541138 0.0314699187874794 -0.051379695534706116 0.003218046622350812 -0.0382954441010952 -0.05365562066435814 -0.08751265704631805 -0.03431518375873566 -0.032338157296180725 0.08620524406433105 -0.03992248699069023 0.04841775819659233 0.045836981385946274 0.06582390516996384 0.04841452091932297 -0.016823794692754745 -0.0784907191991806 -0.03423057496547699 -0.01308297086507082 -0.05822665989398956 0.040396228432655334 0.0165354423224926 -0.04175690934062004 -0.05796317756175995 -0.013479238376021385 -0.03875643387436867 -0.05597666651010513 -0.047851528972387314 -0.06369186192750931 0.01977936364710331 -0.02872115559875965 0.008229593746364117 -0.04004085808992386 0.004618288017809391 -0.043202873319387436 0.01462572067975998 -0.013618695549666882 0.0050786687061190605 0.011498897336423397 1.3549465802498162E-4 -0.022320851683616638 0.025616096332669258 0.008519931696355343 -1.6857910668477416E-4 -0.04475332796573639 0.0047506182454526424 -0.03617911413311958 0.018527138978242874
官邸 0.017429659143090248 0.0677812248468399 0.029608262702822685 -0.03663140907883644 -0.010940613225102425 -0.07737985998392105 0.051973722875118256 0.03061174601316452 -0.10823330283164978 -0.06657791882753372 -0.0148462550714612 0.07032858580350876 -0.0013202772242948413 0.04260710999369621 -0.06823983788490295 -0.03552793711423874 -0.025831304490566254 -0.01567772775888443 0.03903680294752121 0.017925715073943138 -0.012695524841547012 0.03481948748230934 -0.09405158460140228 -0.06106971576809883 -0.09763286262750626 0.05132964253425598 0.056991297751665115 -0.022191761061549187 0.0021644120570272207 0.027029704302549362 -0.010655546560883522 0.0022796180564910173 0.05837690830230713 0.0026928922161459923 -0.045115210115909576 0.08388812094926834 0.038314852863550186 -0.07307915389537811 -0.10158734023571014 -0.05112893506884575 0.002586134010925889 -0.0028402183670550585 -0.03977802023291588 0.07873685657978058 -0.0012160587357357144 0.012615502811968327 0.01330107543617487 0.036974020302295685 0.003391119884327054 -0.0206194706261158 0.01328766718506813 0.06763232499361038 0.08360002934932709 0.03286852687597275 -0.05531850829720497 0.004363564774394035 -0.03104010410606861 -0.05780913308262825 -0.08896474540233612 -0.03372444584965706 -0.03367050737142563 0.0854843333363533 -0.03457461670041084 0.05780106782913208 0.04861222207546234 0.0691213607788086 0.05279647558927536 -0.01407396886497736 -0.07854726165533066 -0.036771953105926514 -0.012796621769666672 -0.06060896813869476 0.046514321118593216 0.01922333985567093 -0.04794482886791229 -0.05793127790093422 -0.014227966777980328 -0.044128481298685074 -0.0605856217443943 -0.04319457709789276 -0.06367480754852295 0.022241191938519478 -0.030716005712747574 0.01100236363708973 -0.04817669466137886 0.012825215235352516 -0.03776886314153671 0.017805684357881546 -0.021476803347468376 -0.0018187250243499875 0.010176282376050949 0.006587104871869087 -0.02234657108783722 0.030724171549081802 0.010788427665829659 0.0038183238357305527 -0.041761089116334915 0.00799502432346344 -0.04389096051454544 0.02275964617729187
田村 0.006445796228945255 0.07433652877807617 0.041083354502916336 -0.03347398340702057 -0.016174789518117905 -0.08818764239549637 0.05423540621995926 0.039838217198848724 -0.1244775652885437 -0.078223817050457 -0.02274170145392418 0.07085179537534714 0.006754621397703886 0.05063849315047264 -0.06918215751647949 -0.04105863347649574 -0.03739464655518532 -0.025642240419983864 0.04432957246899605 0.013483421877026558 -0.024720190092921257 0.04732808098196983 -0.1188972219824791 -0.07662224024534225 -0.1182146891951561 0.05672316625714302 0.06776989996433258 -0.02519902214407921 0.0029238550923764706 0.01767435483634472 -0.010855241678655148 -0.002103783655911684 0.058281511068344116 4.5627146027982235E-4 -0.06490475684404373 0.0982617735862732 0.04257931560277939 -0.09388789534568787 -0.11431555449962616 -0.05016598105430603 8.993617375381291E-4 0.0059478809125721455 -0.03829428553581238 0.09100791066884995 0.0010985117405653 0.015805603936314583 7.983188261277974E-4 0.04384155198931694 -0.0023653104435652494 -0.021305404603481293 0.01905754581093788 0.08956465870141983 0.09990788251161575 0.03171467036008835 -0.06997830420732498 -0.003712329315021634 -0.04091867431998253 -0.0688682422041893 -0.11225622892379761 -0.05496746674180031 -0.04734382778406143 0.10430556535720825 -0.03558431193232536 0.07001201063394547 0.05301101505756378 0.08692460507154465 0.06442542374134064 -0.01199442520737648 -0.0883232057094574 -0.039062075316905975 -0.00840719137340784 -0.07323050498962402 0.05340851843357086 0.02718096226453781 -0.06099666655063629 -0.0658145546913147 -0.006397969089448452 -0.0554577112197876 -0.06563149392604828 -0.047012701630592346 -0.07276026904582977 0.028987189754843712 -0.03666223958134651 0.005613445304334164 -0.0663689374923706 0.010602270253002644 -0.049590982496738434 0.02730875089764595 -0.0272535253316164 0.008907375857234001 0.020710647106170654 -0.0023955025244504213 -0.019039345905184746 0.027036692947149277 0.009920073673129082 0.009408596903085709 -0.04970712587237358 0.0018955384148284793 -0.038985345512628555 0.022325709462165833
諮問 0.016729922965168953 0.11234985291957855 0.045629989355802536 -0.04979580268263817 -0.016708381474018097 -0.12122488766908646 0.07997409254312515 0.05405870079994202 -0.16334587335586548 -0.10355992615222931 -0.023548362776637077 0.09625244140625 0.010407524183392525 0.061894986778497696 -0.09632300585508347 -0.060199592262506485 -0.044510629028081894 -0.03139008581638336 0.06293920427560806 0.02618720754981041 -0.027087945491075516 0.06386594474315643 -0.15270845592021942 -0.09382447600364685 -0.15883539617061615 0.07564203441143036 0.08477182686328888 -0.03897365182638168 -0.0029940130189061165 0.031874947249889374 -0.01622641272842884 -0.0010204202262684703 0.08649607002735138 0.005840772297233343 -0.07462690025568008 0.13341988623142242 0.05747872591018677 -0.11395692825317383 -0.15677206218242645 -0.07712043076753616 0.002171602798625827 0.008584210649132729 -0.0690758004784584 0.12398230284452438 7.299566641449928E-4 0.015072493813931942 0.008648010902106762 0.06084926798939705 3.966874210163951E-4 -0.028988124802708626 0.016843358054757118 0.11714760959148407 0.13075970113277435 0.05432247743010521 -0.08362958580255508 0.0037776941899210215 -0.05042751133441925 -0.0840250700712204 -0.14915697276592255 -0.05903507024049759 -0.05597600340843201 0.13930146396160126 -0.060142360627651215 0.08370135724544525 0.08322173357009888 0.11858122795820236 0.08831464499235153 -0.021932635456323624 -0.1251760572195053 -0.056483130902051926 -0.016893954947590828 -0.09974588453769684 0.06955550611019135 0.028358863666653633 -0.07188891619443893 -0.08672668039798737 -0.016656603664159775 -0.06725013256072998 -0.09329100698232651 -0.06690554320812225 -0.09725622832775116 0.036705102771520615 -0.05481890216469765 0.0046514905989170074 -0.07716315984725952 0.015593399293720722 -0.06275708228349686 0.028604155406355858 -0.032878097146749496 0.0020524521823972464 0.026681087911128998 0.010598274879157543 -0.03749978542327881 0.04129361733794212 0.012739178724586964 0.006581013090908527 -0.06414265930652618 0.010820397175848484 -0.057165730744600296 0.03964216262102127
首相 0.012543854303658009 0.0700017437338829 0.03278210759162903 -0.03337526321411133 -0.006835110019892454 -0.07485292106866837 0.050730347633361816 0.0365467332303524 -0.10055028647184372 -0.05984575301408768 -0.017515525221824646 0.062000174075365067 0.005442769266664982 0.03897392749786377 -0.06468907743692398 -0.030639052391052246 -0.019548064097762108 -0.014266232028603554 0.03891061618924141 0.010542613454163074 -0.0157865472137928 0.03567368537187576 -0.08769941329956055 -0.06465219706296921 -0.09631367027759552 0.045305073261260986 0.054205551743507385 -0.025591179728507996 0.0018163068452849984 0.026859575882554054 -0.007997440174221992 0.002322929911315441 0.05751257389783859 -0.001864593825303018 -0.047000203281641006 0.07926414161920547 0.03319398686289787 -0.07208126038312912 -0.09616129845380783 -0.04788225516676903 0.007205075118690729 0.0021875426173210144 -0.036269813776016235 0.071372851729393 -0.003112714970484376 0.013042496517300606 0.008682483807206154 0.03389333561062813 -0.0012138404417783022 -0.021491283550858498 0.009970111772418022 0.07285019755363464 0.07951575517654419 0.03698619827628136 -0.047995489090681076 -0.0015173974679782987 -0.03704500198364258 -0.05203109234571457 -0.08910408616065979 -0.02928313985466957 -0.03343271091580391 0.08073072135448456 -0.03688177466392517 0.05500638484954834 0.0496056042611599 0.07251332700252533 0.05399535223841667 -0.019004367291927338 -0.07841593772172928 -0.034444063901901245 -0.015349503606557846 -0.06653280556201935 0.04503462091088295 0.016822045668959618 -0.04792417585849762 -0.05245521292090416 -0.01032025646418333 -0.04131242260336876 -0.05913547798991203 -0.042733464390039444 -0.06605204194784164 0.015403804369270802 -0.030281541869044304 0.004371631424874067 -0.03924611210823059 0.005889741703867912 -0.037360865622758865 0.01637023501098156 -0.013455690816044807 0.001977024134248495 0.017200807109475136 0.009197176434099674 -0.021757693961262703 0.03335782140493393 0.0033725337125360966 -0.003469641087576747 -0.035074904561042786 0.0051925708539783955 -0.04050104320049286 0.015695221722126007
相場 0.021902263164520264 0.12161679565906525 0.05596092343330383 -0.056930433958768845 -0.017646104097366333 -0.13955260813236237 0.09125714749097824 0.055555231869220734 -0.17749641835689545 -0.11277134716510773 -0.024231480434536934 0.11712828278541565 0.003367461496964097 0.07567119598388672 -0.11696235090494156 -0.05691728740930557 -0.04895613715052605 -0.03000139258801937 0.07146628201007843 0.0240898709744215 -0.028101440519094467 0.06928384304046631 -0.16163386404514313 -0.11028095334768295 -0.17535729706287384 0.0822998508810997 0.0948333889245987 -0.049628954380750656 -0.002701704390347004 0.048119425773620605 -0.015768464654684067 0.001532039837911725 0.10045456886291504 0.004688336048275232 -0.08330626040697098 0.14716972410678864 0.06693972647190094 -0.12914475798606873 -0.17695969343185425 -0.08776772022247314 0.008854461833834648 0.009454597719013691 -0.06811676174402237 0.136443629860878 0.006482332944869995 0.027092743664979935 0.014163319021463394 0.06784099340438843 0.006379523780196905 -0.03295738995075226 0.023595308884978294 0.12186463922262192 0.14261165261268616 0.056896574795246124 -0.09739351272583008 -0.0023943698033690453 -0.06690409034490585 -0.09958727657794952 -0.16042353212833405 -0.0667463093996048 -0.07139703631401062 0.16111557185649872 -0.06980322301387787 0.09111591428518295 0.08931194990873337 0.12577490508556366 0.0902303084731102 -0.033768799155950546 -0.14179158210754395 -0.05843403935432434 -0.024524787440896034 -0.1069212481379509 0.08040469139814377 0.03874034807085991 -0.08460571616888046 -0.09551756083965302 -0.019387131556868553 -0.0811866968870163 -0.1042034700512886 -0.08309613913297653 -0.11323879659175873 0.035140328109264374 -0.05683249235153198 0.013935341499745846 -0.08227523416280746 0.017348917201161385 -0.0713006854057312 0.030159004032611847 -0.026865867897868156 0.002052247989922762 0.02700527012348175 0.011359087191522121 -0.046272337436676025 0.04771367460489273 0.010911412537097931 0.0013355710543692112 -0.07303675264120102 0.008952316828072071 -0.06748227775096893 0.03384434059262276
概要 0.0101011972874403 0.05297093465924263 0.024190442636609077 -0.024895071983337402 -0.006862626876682043 -0.06696836650371552 0.04394226893782616 0.025219352915883064 -0.08768939226865768 -0.05604402720928192 -0.014402583241462708 0.0524909645318985 0.004238302353769541 0.033218301832675934 -0.05292670801281929 -0.0241249930113554 -0.029283013194799423 -0.021179817616939545 0.02925950661301613 0.006908189505338669 -0.010140805505216122 0.033193282783031464 -0.08588927984237671 -0.056167371571063995 -0.08712278306484222 0.03773551806807518 0.046208202838897705 -0.020592084154486656 -8.903354173526168E-4 0.02162984572350979 -0.004107641987502575 0.002065131440758705 0.04696919769048691 -2.3276744468603283E-4 -0.046474140137434006 0.07514387369155884 0.03160147741436958 -0.06698141992092133 -0.07985975593328476 -0.04327253997325897 -8.776572067290545E-4 0.007001867983490229 -0.029155440628528595 0.06686554849147797 0.007721204776316881 0.011923691257834435 0.00697002187371254 0.03137505427002907 -0.0038290543016046286 -0.01502087339758873 0.011729537509381771 0.06396570801734924 0.06926584243774414 0.021953299641609192 -0.053312748670578 0.0013870663242414594 -0.031228896230459213 -0.047746412456035614 -0.07838457822799683 -0.036219481378793716 -0.036403119564056396 0.07298334687948227 -0.029857272282242775 0.04706200584769249 0.03877125680446625 0.0638895183801651 0.04352330043911934 -0.007895567454397678 -0.06654376536607742 -0.023890890181064606 -0.014704102650284767 -0.05039924383163452 0.04239921271800995 0.017569081857800484 -0.041300635784864426 -0.048252005130052567 -0.005081439856439829 -0.03923134133219719 -0.0494295097887516 -0.0357331857085228 -0.04922030121088028 0.014374363236129284 -0.022838683798909187 0.007321862503886223 -0.04885268211364746 0.004764176905155182 -0.0368247851729393 0.01950690522789955 -0.018923988565802574 0.005927450954914093 0.018069230020046234 9.80712124146521E-4 -0.01861017383635044 0.01860606111586094 0.003266091225668788 0.007912623696029186 -0.03660185635089874 5.897740484215319E-4 -0.03194105997681618 0.02040921151638031
都内 0.014686593785881996 0.12500576674938202 0.05929515138268471 -0.06217702850699425 -0.020654112100601196 -0.14082275331020355 0.09069287776947021 0.061257410794496536 -0.20519526302814484 -0.12402640283107758 -0.0328872911632061 0.12121064960956573 0.008691664785146713 0.07758460193872452 -0.11648686230182648 -0.057721097022295 -0.051596082746982574 -0.03742463141679764 0.08126012980937958 0.0225599966943264 -0.029977427795529366 0.0790533497929573 -0.18407389521598816 -0.11477559804916382 -0.18822987377643585 0.08899633586406708 0.10056858509778976 -0.05283705145120621 -9.947397047653794E-4 0.0364142470061779 -0.019093306735157967 8.161963778547943E-4 0.09619560837745667 0.003710644319653511 -0.09755705296993256 0.16596582531929016 0.07418787479400635 -0.138401597738266 -0.18512621521949768 -0.08847274631261826 5.047445301897824E-4 0.00418595876544714 -0.06812454015016556 0.1515970528125763 0.00546416686847806 0.026906684041023254 0.007277846802026033 0.07191309332847595 0.002557041822001338 -0.0369817316532135 0.03238145634531975 0.14476278424263 0.15445679426193237 0.062427159398794174 -0.1062871590256691 -0.002533912193030119 -0.0683700442314148 -0.10360435396432877 -0.1789492517709732 -0.07849941402673721 -0.07707704603672028 0.17190046608448029 -0.06331697851419449 0.10815021395683289 0.09317678958177567 0.14193850755691528 0.09750600159168243 -0.033414483070373535 -0.14971797168254852 -0.05679892748594284 -0.02445617876946926 -0.11290688067674637 0.0882294625043869 0.04396927356719971 -0.09614705294370651 -0.10502239316701889 -0.016208596527576447 -0.08596482872962952 -0.10704554617404938 -0.0766822099685669 -0.11372125893831253 0.04467102512717247 -0.05916902795433998 0.010084357112646103 -0.106699138879776 0.015409164130687714 -0.07015656679868698 0.02870696783065796 -0.04173208400607109 0.0036494391970336437 0.02715792879462242 0.007305239327251911 -0.044960469007492065 0.04376557841897011 0.019262313842773438 0.007864926941692829 -0.07678583264350891 0.002803343813866377 -0.057764921337366104 0.04481048136949539
様式 0.013466921634972095 0.05247204750776291 0.02393636666238308 -0.02188401110470295 -0.009220798499882221 -0.059219010174274445 0.03164024278521538 0.021143561229109764 -0.07447206228971481 -0.04686753451824188 -0.009095781482756138 0.05064622685313225 -0.0011775137390941381 0.03488878905773163 -0.04680781811475754 -0.025166481733322144 -0.019332317635416985 -0.009827425703406334 0.03049604780972004 0.007785598281770945 -0.010613559745252132 0.0263203252106905 -0.06622061878442764 -0.045892223715782166 -0.0711992010474205 0.03151807561516762 0.03772709146142006 -0.0179457850754261 -0.0029743858613073826 0.01972823776304722 -0.003791338298469782 4.270081117283553E-4 0.04620257019996643 7.733827224001288E-4 -0.03491486236453056 0.05795832350850105 0.03276795521378517 -0.04791048541665077 -0.07647950947284698 -0.033716071397066116 -0.002231455873697996 0.00734002934768796 -0.035568639636039734 0.053473856300115585 -0.005656350404024124 0.00767549080774188 0.007764939684420824 0.02816242165863514 -0.003949820064008236 -0.011045346967875957 0.003043229691684246 0.050066638737916946 0.05607445910573006 0.023974375799298286 -0.03982320427894592 0.003595530753955245 -0.03143946826457977 -0.039445746690034866 -0.06601587682962418 -0.0278407484292984 -0.0309451837092638 0.06617799401283264 -0.03641270846128464 0.033914852887392044 0.03485267609357834 0.05830584093928337 0.04443226009607315 -0.010182840749621391 -0.06326524913311005 -0.02975284866988659 -0.009064807556569576 -0.0435229055583477 0.0311445202678442 0.009176095947623253 -0.031893290579319 -0.038790661841630936 -0.008318114094436169 -0.03652818500995636 -0.046392716467380524 -0.03198268264532089 -0.05283299461007118 0.014807667583227158 -0.0237202737480402 0.002699775155633688 -0.03424973413348198 0.0013165170093998313 -0.030877625569701195 0.009076911024749279 -0.013255422003567219 -1.7302155902143568E-4 0.0037547899410128593 0.005418104585260153 -0.019917698577046394 0.024341603741049767 0.00580759858712554 -0.001513217343017459 -0.03309585899114609 0.007349019404500723 -0.03621619567275047 0.02041182480752468
銘柄 0.026569271460175514 0.26515740156173706 0.1255231350660324 -0.1241343542933464 -0.05602700263261795 -0.2885078191757202 0.20221593976020813 0.12566860020160675 -0.43963921070098877 -0.2836471199989319 -0.06616322696208954 0.25761160254478455 0.03122209943830967 0.16779467463493347 -0.23419053852558136 -0.11672543734312057 -0.1375196874141693 -0.09069924056529999 0.15635022521018982 0.05727437138557434 -0.066259004175663 0.16843897104263306 -0.4082174003124237 -0.2684747278690338 -0.4133532643318176 0.18558555841445923 0.2236759215593338 -0.10814859718084335 0.006205823738127947 0.07750210911035538 -0.042049527168273926 0.011536907404661179 0.20693078637123108 0.010850525461137295 -0.2110600769519806 0.3347201645374298 0.15288393199443817 -0.30465155839920044 -0.3862038552761078 -0.17905808985233307 -0.0061522964388132095 0.020968519151210785 -0.15046937763690948 0.3157198131084442 0.028584416955709457 0.06023087725043297 0.013528729788959026 0.1754673421382904 0.01027339044958353 -0.05317341536283493 0.07223782688379288 0.31340351700782776 0.33665528893470764 0.12420821189880371 -0.22998182475566864 -0.015489427372813225 -0.13244961202144623 -0.2388092428445816 -0.38564449548721313 -0.16957753896713257 -0.15286308526992798 0.36908483505249023 -0.09746833890676498 0.22735169529914856 0.18781569600105286 0.29376983642578125 0.20818129181861877 -0.05234960839152336 -0.31726884841918945 -0.11905515193939209 -0.04533388093113899 -0.25517135858535767 0.175139918923378 0.09834028035402298 -0.20514993369579315 -0.229567289352417 -0.023011986166238785 -0.20042341947555542 -0.22415530681610107 -0.16409027576446533 -0.2414567619562149 0.09226438403129578 -0.1231202781200409 0.0419793576002121 -0.2345520257949829 0.03494744375348091 -0.15522471070289612 0.07697091996669769 -0.09417428076267242 0.011651970446109772 0.07322302460670471 -0.002114338567480445 -0.07193441689014435 0.08988719433546066 0.02913728542625904 0.01845722831785679 -0.16549097001552582 0.0035542030818760395 -0.11347391456365585 0.08788534253835678
消費 0.03206052631139755 0.15131495893001556 0.06765163689851761 -0.07340408116579056 -0.02187235839664936 -0.1665765345096588 0.10731938481330872 0.07401708513498306 -0.2190437763929367 -0.13610734045505524 -0.03372860699892044 0.13800135254859924 0.009516051970422268 0.08878974616527557 -0.14307096600532532 -0.0717344582080841 -0.05647771432995796 -0.03492144122719765 0.08783106505870819 0.03556287661194801 -0.033427104353904724 0.07787179201841354 -0.19588467478752136 -0.13133786618709564 -0.21616113185882568 0.10374030470848083 0.11610762029886246 -0.06271905452013016 0.0035741524770855904 0.05343243479728699 -0.02228829450905323 -0.002059665974229574 0.12583300471305847 -0.004816222935914993 -0.09982254356145859 0.17921417951583862 0.07582638412714005 -0.14989598095417023 -0.21187818050384521 -0.1004219651222229 0.002323057735338807 0.006982979830354452 -0.09172672778367996 0.15769459307193756 -0.004745568614453077 0.02250726707279682 0.01831016130745411 0.07775625586509705 0.0016214617062360048 -0.04072657972574234 0.023888759315013885 0.15546277165412903 0.17457865178585052 0.06641678512096405 -0.11938600242137909 3.2678962452337146E-4 -0.08040422946214676 -0.11919146776199341 -0.19416049122810364 -0.08311694860458374 -0.08371083438396454 0.1911882758140564 -0.08655436336994171 0.11204685270786285 0.10474425554275513 0.1536489576101303 0.11617287993431091 -0.03330886736512184 -0.17520391941070557 -0.06907553970813751 -0.03353758901357651 -0.1287471503019333 0.0918390303850174 0.03791355341672897 -0.10351527482271194 -0.1192951425909996 -0.02404012717306614 -0.08897712826728821 -0.129169762134552 -0.10105284303426743 -0.13216304779052734 0.039292916655540466 -0.07167438417673111 0.017946681007742882 -0.09937158972024918 0.013874156400561333 -0.09142462909221649 0.02844710648059845 -0.03752702474594116 0.010314390994608402 0.02522439695894718 0.014088080264627934 -0.0609697587788105 0.06780663877725601 0.015922851860523224 0.007637322880327702 -0.08986721187829971 0.0149231581017375 -0.08392658084630966 0.05126705393195152
最低 0.010629878379404545 0.05881425738334656 0.024279963225126266 -0.03275599703192711 -0.007444827351719141 -0.06748740375041962 0.04259014502167702 0.028136126697063446 -0.09960641711950302 -0.05827109515666962 -0.014609092846512794 0.05850617587566376 0.008286191150546074 0.03773444518446922 -0.054970547556877136 -0.030592918395996094 -0.026608560234308243 -0.018110377714037895 0.03987110033631325 0.00921606831252575 -0.016766803339123726 0.03660251572728157 -0.08268894255161285 -0.05397023633122444 -0.09221652895212173 0.03772047907114029 0.05058985948562622 -0.022889792919158936 0.0027769131120294333 0.019550548866391182 -0.007975929416716099 0.005589029751718044 0.040945518761873245 0.005778770428150892 -0.04007095843553543 0.07070781290531158 0.02908838726580143 -0.06270168721675873 -0.0846933051943779 -0.0464986152946949 0.003980807028710842 0.0025773001834750175 -0.030083321034908295 0.06938593089580536 0.004361871629953384 0.01498086005449295 0.0066644540056586266 0.03639904409646988 0.0055190823040902615 -0.015671521425247192 0.018076181411743164 0.06567134708166122 0.07775455713272095 0.02937326580286026 -0.053853537887334824 -0.0010064293164759874 -0.02318277582526207 -0.053582582622766495 -0.08214783668518066 -0.028815530240535736 -0.034554656594991684 0.08147977292537689 -0.025926878675818443 0.05115422606468201 0.04870358109474182 0.06339889764785767 0.04712693393230438 -0.012531397864222527 -0.06393703073263168 -0.025317387655377388 -0.011031825095415115 -0.053087249398231506 0.035963479429483414 0.020442578941583633 -0.04151284322142601 -0.04880141839385033 -0.007513550575822592 -0.036544520407915115 -0.0503794364631176 -0.03626023977994919 -0.0523286908864975 0.018308356404304504 -0.023002348840236664 0.01177053339779377 -0.051348574459552765 0.007625271566212177 -0.04024653881788254 0.018040873110294342 -0.020318342372775078 0.0022161798551678658 0.011587106622755527 0.0013077971525490284 -0.022948475554585457 0.022412031888961792 0.007599137723445892 0.006375269498676062 -0.03091096691787243 0.004130516666918993 -0.03460094332695007 0.014148188754916191
人柄 0.014079679735004902 0.08917641639709473 0.041403841227293015 -0.044335346668958664 -0.014017562381923199 -0.09338477998971939 0.07025402784347534 0.045970313251018524 -0.13555395603179932 -0.09192553907632828 -0.024047892540693283 0.08624695241451263 0.007136347703635693 0.05472935363650322 -0.08094871789216995 -0.039334654808044434 -0.03808607533574104 -0.026889946311712265 0.05034593865275383 0.019038258120417595 -0.01895468682050705 0.05387318879365921 -0.131320521235466 -0.08669373393058777 -0.13438007235527039 0.057036589831113815 0.06706332415342331 -0.03808235004544258 0.00573382806032896 0.02371533215045929 -0.007635811809450388 0.006336171180009842 0.07454004883766174 0.007009127177298069 -0.0600971095263958 0.10464192181825638 0.04922680929303169 -0.09291400760412216 -0.12302234023809433 -0.05798199027776718 -0.0010954155586659908 0.010774561204016209 -0.05289763957262039 0.0996328815817833 0.00951036624610424 0.013217310421168804 0.008432809263467789 0.04761090874671936 0.003925901837646961 -0.018851127475500107 0.017876459285616875 0.0942511186003685 0.10434922575950623 0.03665272146463394 -0.07743709534406662 0.0027115854900330305 -0.04737672582268715 -0.07270032167434692 -0.11778870224952698 -0.05318325385451317 -0.0465632788836956 0.1173626109957695 -0.035405609756708145 0.07120626419782639 0.06523231416940689 0.09054947644472122 0.07007431983947754 -0.01382226962596178 -0.09867807477712631 -0.04148463159799576 -0.014073644764721394 -0.08250346779823303 0.06131688505411148 0.029686927795410156 -0.06524675339460373 -0.07214740663766861 -0.003334985114634037 -0.061833079904317856 -0.07816722244024277 -0.05995095521211624 -0.08120055496692657 0.03268923610448837 -0.04242241755127907 0.004864019341766834 -0.06730688363313675 0.007577299606055021 -0.05463451147079468 0.02528061345219612 -0.02569263055920601 0.0016813596012070775 0.02336438000202179 0.002310290466994047 -0.022513102740049362 0.02800801396369934 0.011003013700246811 0.005857580807060003 -0.05382075160741806 0.0041682044975459576 -0.037718288600444794 0.02770831622183323
賃貸 0.017176644876599312 0.0645141750574112 0.03082432970404625 -0.028815200552344322 -0.008076565340161324 -0.06846307963132858 0.046716537326574326 0.03197481110692024 -0.08515297621488571 -0.052751731127500534 -0.016767127439379692 0.05897167697548866 0.0060867625288665295 0.038432348519563675 -0.05461622774600983 -0.031446073204278946 -0.019951140508055687 -0.016952551901340485 0.041149288415908813 0.013936989940702915 -0.011565831489861012 0.036576658487319946 -0.08040736615657806 -0.05192070081830025 -0.09224547445774078 0.04127439856529236 0.04865149408578873 -0.02913590334355831 0.00318513042293489 0.022132162004709244 -0.012740637175738811 8.157837437465787E-4 0.055936072021722794 0.0017815647879615426 -0.03841174766421318 0.08038302510976791 0.03606981039047241 -0.06843136250972748 -0.0858309417963028 -0.04578644782304764 -0.0013906770618632436 0.0022075483575463295 -0.03474066033959389 0.07226785272359848 0.0013458570465445518 0.015341789461672306 0.005722347646951675 0.027020925655961037 0.0024349524173885584 -0.016982566565275192 0.012236068025231361 0.0584825724363327 0.07507827132940292 0.03155083954334259 -0.04419610649347305 -0.004277063068002462 -0.03416510298848152 -0.04594460502266884 -0.08209066092967987 -0.03158608078956604 -0.03458201885223389 0.07946993410587311 -0.03747865557670593 0.05074191838502884 0.04145264998078346 0.0648365318775177 0.05050542578101158 -0.013138532638549805 -0.07624673843383789 -0.03566369414329529 -0.01279530581086874 -0.060651883482933044 0.04297277703881264 0.017960159108042717 -0.03925347700715065 -0.049649085849523544 -0.006837234832346439 -0.03684049844741821 -0.05441615730524063 -0.03818948566913605 -0.06058748811483383 0.013091403059661388 -0.030839916318655014 0.0017820756183937192 -0.03718337044119835 0.011369024403393269 -0.036783043295145035 0.015720674768090248 -0.010889885015785694 -0.0013975235633552074 0.01442061085253954 0.006871804129332304 -0.023744920268654823 0.02625478431582451 0.009190976619720459 0.0025299726985394955 -0.03779161721467972 0.002191543346270919 -0.03396601229906082 0.02216673269867897
一時 0.008915447629988194 0.04804956167936325 0.023981165140867233 -0.025750786066055298 -0.006424455903470516 -0.05093579739332199 0.034366827458143234 0.017595229670405388 -0.07066364586353302 -0.042582862079143524 -0.00772270979359746 0.041369687765836716 -4.4600124238058925E-4 0.026510609313845634 -0.04299743473529816 -0.020317189395427704 -0.015164080075919628 -0.011773045174777508 0.032298341393470764 0.010069449432194233 -0.00927426852285862 0.023439941927790642 -0.059866562485694885 -0.03952445089817047 -0.07136550545692444 0.03381744772195816 0.038877807557582855 -0.01704798825085163 0.002357859630137682 0.01586858369410038 -0.005812520626932383 0.003704882226884365 0.037487637251615524 -5.620743031613529E-4 -0.026614276692271233 0.05738218128681183 0.021641427651047707 -0.04983271658420563 -0.06767493486404419 -0.032164137810468674 -0.0015904447063803673 9.855534881353378E-5 -0.027562057599425316 0.05512280762195587 0.004608628340065479 0.012701911851763725 0.008683189749717712 0.019955746829509735 -0.003346120472997427 -0.010896681807935238 0.0023684294428676367 0.04283967614173889 0.059546057134866714 0.026481498032808304 -0.03777705132961273 8.14841128885746E-4 -0.021677831187844276 -0.030680503696203232 -0.06414112448692322 -0.019735030829906464 -0.021518846973776817 0.0625835508108139 -0.026265159249305725 0.03699193894863129 0.0307509433478117 0.04701593518257141 0.03235381841659546 -0.012950989417731762 -0.057111065834760666 -0.02686562016606331 -0.010957567021250725 -0.03893508389592171 0.028365755453705788 0.007980503141880035 -0.03532079979777336 -0.04315699636936188 -0.0067785922437906265 -0.030635371804237366 -0.03691871836781502 -0.03346704691648483 -0.038320787250995636 0.01416096556931734 -0.023778215050697327 0.002796328626573086 -0.02731204964220524 0.009083108976483345 -0.026742031797766685 0.008393549360334873 -0.010678812861442566 0.005895563401281834 0.00805053673684597 0.005264730658382177 -0.020072096958756447 0.020025549456477165 0.003817407414317131 -0.0016120990039780736 -0.02549407258629799 0.006236208602786064 -0.024543937295675278 0.015575507655739784
大和 0.013735108077526093 0.07233115285634995 0.027724560350179672 -0.037751536816358566 -0.01604226417839527 -0.0858113020658493 0.05402831360697746 0.029845518991351128 -0.10803521424531937 -0.06683966517448425 -0.0164162777364254 0.07115098088979721 5.785056273452938E-4 0.041059475392103195 -0.06445999443531036 -0.030784061178565025 -0.03151150792837143 -0.023268429562449455 0.04212338477373123 0.011545638553798199 -0.013533911667764187 0.043939732015132904 -0.10129690170288086 -0.06460177153348923 -0.10116054862737656 0.051929231733083725 0.05660758912563324 -0.02722317725419998 0.0043520391918718815 0.02506067603826523 -0.0069105057045817375 0.0051488992758095264 0.05443347245454788 0.00546029070392251 -0.048549335449934006 0.08322904258966446 0.03527907654643059 -0.07188106328248978 -0.0992705225944519 -0.051977965980768204 1.6777022392489016E-4 0.005493338219821453 -0.0386841781437397 0.07504675537347794 0.005663576535880566 0.011448340490460396 0.010204962454736233 0.04298420622944832 0.0055716512724757195 -0.0224476121366024 0.011935153976082802 0.07985597103834152 0.08842001110315323 0.03437470644712448 -0.06143328547477722 -0.0014746205415576696 -0.03416230157017708 -0.05920574069023132 -0.09983126819133759 -0.04228770360350609 -0.03897235542535782 0.0933959111571312 -0.03442225977778435 0.06060786172747612 0.05138590186834335 0.07403941452503204 0.05908748880028725 -0.017456170171499252 -0.08206883072853088 -0.03926222026348114 -0.02063857950270176 -0.06721320748329163 0.04362912103533745 0.023586073890328407 -0.04605470225214958 -0.060059767216444016 -0.007699271664023399 -0.04945843666791916 -0.06688673049211502 -0.043621331453323364 -0.06134656071662903 0.0181821808218956 -0.03641229122877121 0.006105625536292791 -0.054172828793525696 0.008400101214647293 -0.043662261217832565 0.012578384950757027 -0.02476109191775322 0.00786325428634882 0.012382667511701584 0.0022962086368352175 -0.029347660019993782 0.03189915791153908 0.004236782435327768 -0.0021977024152874947 -0.04033312946557999 0.0015583607601001859 -0.04076952859759331 0.023232555016875267
研究所 0.018671894446015358 0.15628743171691895 0.07207620143890381 -0.074110247194767 -0.027672022581100464 -0.17203740775585175 0.1198987364768982 0.07473345845937729 -0.24937975406646729 -0.15918521583080292 -0.03474745899438858 0.1523798704147339 0.020426742732524872 0.09589587897062302 -0.14202623069286346 -0.07654863595962524 -0.07153312861919403 -0.051010861992836 0.09223272651433945 0.026691099628806114 -0.03407325595617294 0.09036175161600113 -0.23201784491539001 -0.14753663539886475 -0.23309363424777985 0.10268361121416092 0.12411177903413773 -0.06367955356836319 0.005875467322766781 0.04331781342625618 -0.022739985957741737 0.0018243462545797229 0.12214411795139313 0.009296547621488571 -0.11238814145326614 0.20103971660137177 0.07976264506578445 -0.1668441891670227 -0.22688044607639313 -0.10870622098445892 2.754861197900027E-4 0.012350615113973618 -0.09256058931350708 0.18673937022686005 0.007937910035252571 0.03320771083235741 0.010901317000389099 0.09574820846319199 -0.0027800314128398895 -0.03834155946969986 0.030880259349942207 0.1698630303144455 0.18814170360565186 0.06839282065629959 -0.1270488202571869 -0.0034521271008998156 -0.07854461669921875 -0.1324804276227951 -0.22111716866493225 -0.09184536337852478 -0.08767533302307129 0.20989157259464264 -0.07478568702936172 0.13259872794151306 0.1162249743938446 0.17076078057289124 0.11735905706882477 -0.032143961638212204 -0.1818775087594986 -0.07645782083272934 -0.02710038609802723 -0.1484454721212387 0.10174856334924698 0.05626881867647171 -0.11331726610660553 -0.13911350071430206 -0.010266209952533245 -0.10946347564458847 -0.129163458943367 -0.09598485380411148 -0.1369033306837082 0.048598647117614746 -0.07035300135612488 0.018926922231912613 -0.12786757946014404 0.01676858589053154 -0.0897282212972641 0.03922867402434349 -0.046403106302022934 0.011760609224438667 0.04080202803015709 0.007297616917639971 -0.04782937094569206 0.060737498104572296 0.01702163927257061 0.00802129227668047 -0.09031431376934052 0.013270351104438305 -0.0711745172739029 0.05425754189491272
今日 0.011530674062669277 0.07998406141996384 0.03646082803606987 -0.03819753974676132 -0.009911814704537392 -0.08910074084997177 0.052863482385873795 0.03766004741191864 -0.12202902883291245 -0.07598642259836197 -0.0178664717823267 0.0744529440999031 0.007709716446697712 0.045897021889686584 -0.07628888636827469 -0.04075499624013901 -0.03364872187376022 -0.027505386620759964 0.04325535520911217 0.014115828089416027 -0.01446456927806139 0.04435959830880165 -0.10712880641222 -0.06778106838464737 -0.11715017259120941 0.04913017153739929 0.06375198066234589 -0.026512835174798965 0.002053924836218357 0.0246298648416996 -0.015314401127398014 0.005969898775219917 0.059084974229335785 8.709371904842556E-4 -0.050776951014995575 0.09429306536912918 0.04174734652042389 -0.08407596498727798 -0.11441769450902939 -0.05149074271321297 -0.002718113362789154 0.005484472960233688 -0.04498186334967613 0.0912347212433815 0.0011429893784224987 0.017940960824489594 0.006465747952461243 0.039403386414051056 -0.00180588208604604 -0.02499491721391678 0.013967413455247879 0.08046245574951172 0.09631000459194183 0.03553178533911705 -0.06628499180078506 -1.7302697233390063E-4 -0.03769993036985397 -0.059191420674324036 -0.10199399292469025 -0.043786559253931046 -0.04071398451924324 0.10631686449050903 -0.045668408274650574 0.06584377586841583 0.05243198946118355 0.07889720052480698 0.058034345507621765 -0.01968366652727127 -0.08852998912334442 -0.04076254367828369 -0.013861255720257759 -0.06932995468378067 0.05273330584168434 0.019742699339985847 -0.05141748487949371 -0.06279823929071426 -0.009529158473014832 -0.04753882437944412 -0.06858355551958084 -0.05146847665309906 -0.07221779227256775 0.017441339790821075 -0.04171532392501831 0.006806588731706142 -0.06136862561106682 0.011501597240567207 -0.052224185317754745 0.02203986980021 -0.02288380078971386 2.8999551432207227E-4 0.01271914690732956 0.0061924029141664505 -0.024126455187797546 0.037604786455631256 0.0033773903269320726 0.002146729500964284 -0.047737475484609604 0.003445821348577738 -0.046121660619974136 0.02273392304778099
前向き 0.009867637418210506 0.06603565812110901 0.020402124151587486 -0.03162781894207001 -0.0073404982686042786 -0.06711921840906143 0.03538304194808006 0.02817700430750847 -0.07991933822631836 -0.05208807438611984 -0.011256673373281956 0.048815932124853134 -0.0042014834471046925 0.03619994968175888 -0.053907059133052826 -0.02617034502327442 -0.015175917185842991 -0.01445038989186287 0.03735097870230675 0.01157015934586525 -0.007359648589044809 0.0349004827439785 -0.06689359247684479 -0.047522034496068954 -0.0851069912314415 0.04295961186289787 0.045908261090517044 -0.020621752366423607 -9.058472933247685E-4 0.019923830404877663 -0.013959980569779873 -8.326467941515148E-4 0.04543200135231018 -0.0054455469362437725 -0.031774118542671204 0.06405077129602432 0.03084561415016651 -0.058054305613040924 -0.08696982264518738 -0.04579140245914459 0.008453261107206345 0.0021575798746198416 -0.03602660074830055 0.05592283979058266 -0.004391572903841734 0.009883194230496883 0.01308670174330473 0.022206483408808708 -0.0012548444792628288 -0.020571479573845863 0.004416316282004118 0.051420360803604126 0.06650244444608688 0.029386484995484352 -0.042020149528980255 0.0016080797649919987 -0.035413049161434174 -0.039642125368118286 -0.07615914195775986 -0.028109421953558922 -0.03260769695043564 0.06773725152015686 -0.04061901196837425 0.036710742861032486 0.03931131586432457 0.05973675474524498 0.04528861865401268 -0.013636087067425251 -0.06252694875001907 -0.03415451571345329 -0.019228074699640274 -0.05429593473672867 0.04039030522108078 0.014862602576613426 -0.040553539991378784 -0.04202927276492119 -0.012158090248703957 -0.0350203737616539 -0.053558871150016785 -0.035357799381017685 -0.051073260605335236 0.01124434545636177 -0.02644537016749382 0.009363370947539806 -0.02742713876068592 0.0031502244528383017 -0.031009702011942863 0.013907846063375473 -0.01044433657079935 6.724651902914047E-4 0.011615799739956856 0.004894182551652193 -0.026903802528977394 0.030488871037960052 0.007480375934392214 0.0017862259410321712 -0.038171809166669846 0.008384493179619312 -0.03758082911372185 0.013359482400119305
拓郎 0.012065400369465351 0.04868920519948006 0.01601114310324192 -0.02396596409380436 -0.00432589603587985 -0.048447996377944946 0.03581944853067398 0.025727318599820137 -0.07276250422000885 -0.0474717877805233 -0.01083862129598856 0.04384975880384445 0.005733224097639322 0.02632477506995201 -0.04303118586540222 -0.020072292536497116 -0.01910279504954815 -0.010284729301929474 0.02870045229792595 0.01353139616549015 -0.0062794494442641735 0.02842136286199093 -0.0624714158475399 -0.04015016928315163 -0.06760364025831223 0.02609908953309059 0.03855866193771362 -0.01465673092752695 -0.002048945752903819 0.019375232979655266 -0.00648285448551178 -0.0032855563331395388 0.037516627460718155 -0.0038478525821119547 -0.0380350798368454 0.058335114270448685 0.024244746193289757 -0.04664970189332962 -0.0620119571685791 -0.03554489463567734 0.004602209664881229 -0.0015104040503501892 -0.027112841606140137 0.04626648873090744 3.16368619678542E-4 0.011717178858816624 0.0038249604403972626 0.029971422627568245 -0.003741542110219598 -0.014324881136417389 0.012913362123072147 0.04659876599907875 0.057007402181625366 0.020566178485751152 -0.03731578588485718 9.938846342265606E-4 -0.027143875136971474 -0.03793741390109062 -0.06133999675512314 -0.02802337147295475 -0.030108507722616196 0.055080853402614594 -0.018757445737719536 0.03963476046919823 0.032948147505521774 0.045993395149707794 0.034177690744400024 -0.00589073495939374 -0.05364621430635452 -0.02429177425801754 -0.011495985090732574 -0.04161440208554268 0.03337853029370308 0.012388150207698345 -0.030868664383888245 -0.042664069682359695 -0.00837878230959177 -0.031111618503928185 -0.036939553916454315 -0.03429499268531799 -0.03913063928484917 0.010380948893725872 -0.018657198175787926 0.004834418185055256 -0.03159480169415474 0.007893041707575321 -0.02267136611044407 0.01109987311065197 -0.008447356522083282 -1.221930142492056E-4 0.008550405502319336 -0.0023471058811992407 -0.019769905135035515 0.02180134505033493 0.0013600146630778909 0.0046707019209861755 -0.03238791972398758 9.757523657754064E-4 -0.024197541177272797 0.01701383665204048
収穫 0.01890396699309349 0.07176977396011353 0.02876012586057186 -0.038135409355163574 -0.01248939335346222 -0.07764296978712082 0.049023546278476715 0.034926217049360275 -0.09814624488353729 -0.05762426555156708 -0.014838425442576408 0.060793060809373856 -6.286214338615537E-4 0.04266604408621788 -0.06685587018728256 -0.03462662920355797 -0.025169862434267998 -0.019485510885715485 0.0358736477792263 0.01444182638078928 -0.008907604962587357 0.03818272426724434 -0.0863042026758194 -0.053703635931015015 -0.09505581855773926 0.045571859925985336 0.052347030490636826 -0.023941025137901306 -0.0037001913879066706 0.025403810665011406 -0.010576470755040646 -0.0010534875327721238 0.06207264959812164 -3.764781286008656E-4 -0.03894409164786339 0.07781573385000229 0.034860048443078995 -0.06667052209377289 -0.10086896270513535 -0.04712981358170509 0.0033190830145031214 -0.002306289505213499 -0.046959541738033295 0.07613354176282883 -0.006171839311718941 0.010394413955509663 0.009788834489881992 0.03430026397109032 0.0023312352132052183 -0.02432749979197979 0.010339734144508839 0.0705791786313057 0.08383084088563919 0.02828710712492466 -0.04955535754561424 0.002978499047458172 -0.03623472526669502 -0.047591421753168106 -0.09015903621912003 -0.033735573291778564 -0.03621002286672592 0.09078531712293625 -0.04340393468737602 0.048330895602703094 0.052450355142354965 0.07065296173095703 0.05193227156996727 -0.016666295006871223 -0.07894028723239899 -0.03150389343500137 -0.012251314707100391 -0.05751713737845421 0.0392981693148613 0.010080346837639809 -0.04557317495346069 -0.05167527496814728 -0.008395400829613209 -0.038100313395261765 -0.05862138792872429 -0.049818623811006546 -0.06367762386798859 0.020164940506219864 -0.033602599054574966 0.0025556939654052258 -0.03675723075866699 0.010971523821353912 -0.045492395758628845 0.010890580713748932 -0.016422996297478676 -0.001124400645494461 0.01051246840506792 0.010036878287792206 -0.027606265619397163 0.027810977771878242 0.003171969670802355 -0.002288759220391512 -0.04235350340604782 0.007956740446388721 -0.040372442454099655 0.016870852559804916
圧力 0.013192307204008102 0.05025482550263405 0.019873181357979774 -0.0267435722053051 -0.004377346020191908 -0.05135592445731163 0.03512417897582054 0.02235303446650505 -0.07127702981233597 -0.05062301456928253 -0.012152912095189095 0.048232223838567734 0.0015366983134299517 0.03195924684405327 -0.050432201474905014 -0.02471659891307354 -0.023737827315926552 -0.015979502350091934 0.029144467785954475 0.010600593872368336 -0.01493107806891203 0.025078576058149338 -0.06981392949819565 -0.043634019792079926 -0.07430070638656616 0.030344514176249504 0.040213797241449356 -0.01413808949291706 0.005077782552689314 0.012734513729810715 -0.007303303107619286 0.004844640847295523 0.03669228032231331 -1.3764272443950176E-4 -0.03342392295598984 0.05603095516562462 0.030507853254675865 -0.04809308797121048 -0.06842385232448578 -0.038094762712717056 -2.404710539849475E-4 -3.3223984064534307E-4 -0.032744813710451126 0.05864234268665314 -0.0029140040278434753 0.009081680327653885 -8.049202733673155E-4 0.02360350638628006 0.004547503311187029 -0.01311654131859541 0.010793938301503658 0.056151263415813446 0.05723770335316658 0.028217142447829247 -0.04058832302689552 -0.005273433867841959 -0.02967056818306446 -0.03618178144097328 -0.06514997780323029 -0.03194114938378334 -0.022443147376179695 0.06767938286066055 -0.02142569050192833 0.03580541908740997 0.033801641315221786 0.04702193662524223 0.036143675446510315 -0.007770994678139687 -0.06238928437232971 -0.02221520245075226 -0.013115744106471539 -0.04212980344891548 0.02787555195391178 0.012071480043232441 -0.031330764293670654 -0.039265356957912445 -0.004843572154641151 -0.03627431020140648 -0.04182366281747818 -0.03125709295272827 -0.049208711832761765 0.015319392085075378 -0.02572697587311268 0.006487807724624872 -0.030562767758965492 0.0087830675765872 -0.027973629534244537 0.015662601217627525 -0.014263599179685116 0.007286425214260817 0.011726303026080132 0.0027709905989468098 -0.019799893721938133 0.020164458081126213 0.0022980868816375732 -0.0031089945696294308 -0.03221524879336357 0.005740717984735966 -0.030268436297774315 0.011600873433053493
高値 0.024343915283679962 0.15789970755577087 0.07224532961845398 -0.07625697553157806 -0.024699386209249496 -0.17356431484222412 0.1205989420413971 0.07428387552499771 -0.25621727108955383 -0.16628970205783844 -0.037429120391607285 0.14620350301265717 0.015296824276447296 0.10688608884811401 -0.1388266235589981 -0.08667736500501633 -0.07490097731351852 -0.05369659140706062 0.09460792690515518 0.025716280564665794 -0.04247144237160683 0.0878593698143959 -0.23956438899040222 -0.14595723152160645 -0.23790036141872406 0.10450321435928345 0.12962934374809265 -0.06524743884801865 0.0021229544654488564 0.03579152002930641 -0.023018304258584976 0.009638517163693905 0.1272485852241516 0.008413534611463547 -0.11249199509620667 0.1970662921667099 0.08697274327278137 -0.17075780034065247 -0.22521787881851196 -0.10213624686002731 -0.0010432132985442877 0.01654396392405033 -0.0911765843629837 0.18385136127471924 0.008168294094502926 0.03245889022946358 0.0013078544288873672 0.090518057346344 -4.213909269310534E-4 -0.034869659692049026 0.03912830352783203 0.17620956897735596 0.18863791227340698 0.06650874763727188 -0.13766175508499146 -0.0046865325421094894 -0.0850294753909111 -0.1314806193113327 -0.22518038749694824 -0.10302475839853287 -0.09703892469406128 0.21494226157665253 -0.07544082403182983 0.12651795148849487 0.10907866805791855 0.1782960444688797 0.12890806794166565 -0.029954256489872932 -0.18746399879455566 -0.06971758604049683 -0.027608057484030724 -0.14495256543159485 0.10469566285610199 0.048875559121370316 -0.10854596644639969 -0.1342804729938507 -0.00926283560693264 -0.12061233073472977 -0.13812218606472015 -0.09914310276508331 -0.13719306886196136 0.05059446394443512 -0.06704454123973846 0.013627181760966778 -0.13404546678066254 0.019814323633909225 -0.09215622395277023 0.04656440392136574 -0.05033904314041138 0.01014983281493187 0.0334467813372612 -9.351829648949206E-4 -0.05313298851251602 0.055684033781290054 0.016122914850711823 0.014833279885351658 -0.10381726175546646 0.009176511317491531 -0.07291058450937271 0.0518997460603714
エネルギー 0.004873170051723719 0.06242140382528305 0.029348690062761307 -0.032349709421396255 -0.010685599409043789 -0.07130607962608337 0.05128239840269089 0.030905934050679207 -0.1053776815533638 -0.0709063708782196 -0.016840215772390366 0.06392401456832886 0.011721394024789333 0.0386037714779377 -0.055433228611946106 -0.03622313216328621 -0.028447560966014862 -0.020856358110904694 0.039893753826618195 0.0180276520550251 -0.01725771464407444 0.040597353130578995 -0.10037106275558472 -0.06451110541820526 -0.1063605397939682 0.048524390906095505 0.0570201650261879 -0.023414064198732376 -9.172717109322548E-4 0.018973011523485184 -0.010649559088051319 -1.6698130639269948E-4 0.05513918027281761 -9.134849824476987E-5 -0.047198519110679626 0.09165026247501373 0.04097767546772957 -0.07252383232116699 -0.09582718461751938 -0.04959368333220482 -6.756786606274545E-4 0.003191879950463772 -0.038432542234659195 0.07564038783311844 0.00784473866224289 0.012486562132835388 0.006741208024322987 0.042185332626104355 0.004768512211740017 -0.012154562398791313 0.015333093702793121 0.07230653613805771 0.08755970001220703 0.02522478811442852 -0.0639679804444313 -0.006806885823607445 -0.03247380256652832 -0.05713552236557007 -0.09963836520910263 -0.04616173729300499 -0.0407034307718277 0.09211710095405579 -0.02981150522828102 0.05368766188621521 0.05306340754032135 0.07586923986673355 0.048484280705451965 -0.009108221158385277 -0.0828385129570961 -0.03039233200252056 -0.013827008195221424 -0.06510980427265167 0.04717240482568741 0.024012573063373566 -0.04738718271255493 -0.0628461018204689 -0.006672267336398363 -0.04737694934010506 -0.05322731286287308 -0.038032129406929016 -0.06081946939229965 0.020860809832811356 -0.03464053198695183 0.011099770665168762 -0.056300994008779526 0.0037579508498311043 -0.040399760007858276 0.014883930794894695 -0.024411151185631752 0.004859903361648321 0.02022693306207657 0.00497016403824091 -0.01974138617515564 0.019821126013994217 0.005236994940787554 3.0925357714295387E-4 -0.04620709270238876 0.007434447295963764 -0.03349871560931206 0.018888559192419052
間接 0.00266513810493052 0.04530554264783859 0.017023956403136253 -0.023346086964011192 -0.007803014945238829 -0.048100411891937256 0.02778860367834568 0.02092016488313675 -0.0656326562166214 -0.04696674644947052 -0.006295628380030394 0.04065699502825737 0.0019295117817819118 0.029704373329877853 -0.0350138358771801 -0.021771494299173355 -0.019467459991574287 -0.010325782001018524 0.027777068316936493 0.006376984063535929 -0.007893449626863003 0.02274428866803646 -0.06401561200618744 -0.03721417486667633 -0.06656219810247421 0.024455752223730087 0.03671026602387428 -0.015219435095787048 -0.0037157991901040077 0.008125814609229565 -0.011069731786847115 0.0014637139393016696 0.032647743821144104 0.005423605442047119 -0.031528037041425705 0.051270391792058945 0.02011292427778244 -0.049717407673597336 -0.06322726607322693 -0.023852616548538208 0.0016681378474459052 0.008832789957523346 -0.02070756070315838 0.04838977009057999 7.146270363591611E-4 0.007899362593889236 0.002985389670357108 0.027928555384278297 -5.638728034682572E-4 -0.00974042247980833 0.005478635895997286 0.04616277664899826 0.05642256513237953 0.021968308836221695 -0.035275764763355255 -0.00391483586281538 -0.021945638582110405 -0.034175947308540344 -0.06313836574554443 -0.024580400437116623 -0.021167835220694542 0.06257230788469315 -0.021336928009986877 0.033716898411512375 0.025281623005867004 0.04527944326400757 0.03671307861804962 -0.008749165572226048 -0.053720369935035706 -0.01795603521168232 -0.005305495113134384 -0.037867311388254166 0.02762758731842041 0.014111446216702461 -0.02667953446507454 -0.03858768939971924 -0.002011418342590332 -0.027490690350532532 -0.03659036383032799 -0.028233034536242485 -0.03830777108669281 0.013128546997904778 -0.02020341344177723 0.004622774198651314 -0.03973777964711189 0.0031763259321451187 -0.022104596719145775 0.007092441897839308 -0.01168731041252613 0.003870466025546193 0.00729459710419178 0.002495058113709092 -0.01019787136465311 0.01780005544424057 2.8418301371857524E-4 0.006089132744818926 -0.02638314478099346 0.0014573006192222238 -0.01464159321039915 0.01668134517967701
明治 0.007529392838478088 0.04373522475361824 0.021002203226089478 -0.016707446426153183 -0.0036158908624202013 -0.047728680074214935 0.031263191252946854 0.020138463005423546 -0.055376045405864716 -0.040259309113025665 -0.007229709532111883 0.03950854390859604 0.004864541348069906 0.02167011797428131 -0.0399797149002552 -0.015553890727460384 -0.015221802517771721 -0.011233537457883358 0.01880115456879139 0.0035022497177124023 -0.00901133194565773 0.0250864215195179 -0.05679010972380638 -0.03985835984349251 -0.062209587544202805 0.029944701120257378 0.02751823142170906 -0.014733840711414814 0.0030351863242685795 0.010108978487551212 -0.005504947621375322 4.266184405423701E-4 0.027247538790106773 0.0021608357783406973 -0.026490196585655212 0.04767956957221031 0.017492372542619705 -0.0405300110578537 -0.05834942311048508 -0.03140665963292122 0.0037013383116573095 -4.249151679687202E-4 -0.02636198326945305 0.04708560183644295 -0.002667338354513049 0.0037624507676810026 0.009166418574750423 0.021694645285606384 0.0048254444263875484 -0.015480340458452702 0.0069705103524029255 0.04146696627140045 0.0440855398774147 0.015039226040244102 -0.028722381219267845 0.004031897056847811 -0.01912842132151127 -0.028987595811486244 -0.05681748688220978 -0.023460356518626213 -0.019367532804608345 0.04919472709298134 -0.024106914177536964 0.03290552273392677 0.029589973390102386 0.041654858738183975 0.0321587473154068 -0.005958955734968185 -0.04413953796029091 -0.021052032709121704 -0.004214765038341284 -0.0371757335960865 0.02222704514861107 0.015077352523803711 -0.02462247759103775 -0.03514644876122475 -0.004732667934149504 -0.024105394259095192 -0.030714059248566628 -0.022730382159352303 -0.040004875510931015 0.012048057280480862 -0.018121184781193733 0.008223436772823334 -0.028598403558135033 0.005184356123209 -0.023615054786205292 0.01381103415042162 -0.007289043627679348 -0.002870086347684264 0.01017085649073124 -0.0012567344820126891 -0.009687124751508236 0.01985686644911766 0.005335590802133083 0.0027479389682412148 -0.02215348556637764 8.554950472898781E-4 -0.024800501763820648 0.013820420950651169
力不足 0.018389709293842316 0.06750039011240005 0.028802936896681786 -0.03756624460220337 -0.008263608440756798 -0.07898891717195511 0.04977227374911308 0.02997230365872383 -0.0976567342877388 -0.05562509223818779 -0.01697487384080887 0.06358662992715836 -0.002380120102316141 0.04269765689969063 -0.06500913202762604 -0.037672802805900574 -0.02442074753344059 -0.0198882557451725 0.04362115263938904 0.013081365264952183 -0.013993985019624233 0.03329458087682724 -0.08111190795898438 -0.054699987173080444 -0.09455960988998413 0.04583491384983063 0.05099228024482727 -0.028276361525058746 3.5592331551015377E-4 0.023351451382040977 -0.008703039959073067 -0.004433729685842991 0.054017018526792526 -0.005037740338593721 -0.042623814195394516 0.07682472467422485 0.038946107029914856 -0.06790484488010406 -0.0964609906077385 -0.049711231142282486 0.0067915599793195724 0.005660609807819128 -0.03967565670609474 0.07504817843437195 0.0011981382267549634 0.012066472321748734 0.006097196135669947 0.03031093068420887 6.377335521392524E-4 -0.02379428967833519 0.011989578604698181 0.07145300507545471 0.08301480859518051 0.03152722865343094 -0.05633248761296272 -3.092542174272239E-4 -0.0358915776014328 -0.04795921593904495 -0.08381055295467377 -0.03336561098694801 -0.039478227496147156 0.08623890578746796 -0.04027406871318817 0.05391490459442139 0.052101098001003265 0.06495779752731323 0.050427041947841644 -0.02106574736535549 -0.07620705664157867 -0.034508123993873596 -0.020764440298080444 -0.06447165459394455 0.041624195873737335 0.014812975190579891 -0.039027679711580276 -0.05385811626911163 -0.01502990908920765 -0.0370057038962841 -0.055759500712156296 -0.04650376737117767 -0.06287232786417007 0.015320886857807636 -0.03452833741903305 0.00562626589089632 -0.035485584288835526 0.0104830302298069 -0.03755727782845497 0.01350044272840023 -0.012129554525017738 0.004887865856289864 0.01093137077987194 0.010172108188271523 -0.03280108422040939 0.03484123572707176 0.010722714476287365 -0.0015473163221031427 -0.03594966232776642 0.00923751201480627 -0.04565193131566048 0.02324891835451126
